{"learner":{"attributes":{},"feature_names":["day","hr_maxHeartRate","hr_minHeartRate","hr_restingHeartRate","hr_lastSevenDaysAvgRestingHeartRate","resp_lowestRespirationValue","resp_highestRespirationValue","resp_avgWakingRespirationValue","resp_avgSleepRespirationValue","resp_avgTomorrowSleepRespirationValue","str_maxStressLevel","str_avgStressLevel","sleep_sleepTimeSeconds","sleep_napTimeSeconds","sleep_unmeasurableSleepSeconds","sleep_deepSleepSeconds","sleep_lightSleepSeconds","sleep_remSleepSeconds","sleep_awakeSleepSeconds","act_totalCalories","act_activeKilocalories","act_distance","act_activeTime","sleep_averageRespirationValue","sleep_lowestRespirationValue","sleep_highestRespirationValue","sleep_awakeCount","sleep_avgSleepStress","sleep_avgHeartRate","hr_time_series_mean","hr_time_series_std","hr_time_series_min","hr_time_series_max","resp_time_series_mean","resp_time_series_std","resp_time_series_min","resp_time_series_max","stress_time_series_mean","stress_time_series_std","stress_time_series_min","stress_time_series_max"],"feature_types":["int","int","int","int","int","float","float","float","float","float","int","int","float","float","float","float","float","float","float","float","float","int","float","float","float","float","float","float","float","float","float","int","int","float","float","float","float","float","float","int","int"],"gradient_booster":{"model":{"gbtree_model_param":{"num_parallel_tree":"1","num_trees":"500"},"iteration_indptr":[0,1,2,3,4,5,6,7,8,9,10,11,12,13,14,15,16,17,18,19,20,21,22,23,24,25,26,27,28,29,30,31,32,33,34,35,36,37,38,39,40,41,42,43,44,45,46,47,48,49,50,51,52,53,54,55,56,57,58,59,60,61,62,63,64,65,66,67,68,69,70,71,72,73,74,75,76,77,78,79,80,81,82,83,84,85,86,87,88,89,90,91,92,93,94,95,96,97,98,99,100,101,102,103,104,105,106,107,108,109,110,111,112,113,114,115,116,117,118,119,120,121,122,123,124,125,126,127,128,129,130,131,132,133,134,135,136,137,138,139,140,141,142,143,144,145,146,147,148,149,150,151,152,153,154,155,156,157,158,159,160,161,162,163,164,165,166,167,168,169,170,171,172,173,174,175,176,177,178,179,180,181,182,183,184,185,186,187,188,189,190,191,192,193,194,195,196,197,198,199,200,201,202,203,204,205,206,207,208,209,210,211,212,213,214,215,216,217,218,219,220,221,222,223,224,225,226,227,228,229,230,231,232,233,234,235,236,237,238,239,240,241,242,243,244,245,246,247,248,249,250,251,252,253,254,255,256,257,258,259,260,261,262,263,264,265,266,267,268,269,270,271,272,273,274,275,276,277,278,279,280,281,282,283,284,285,286,287,288,289,290,291,292,293,294,295,296,297,298,299,300,301,302,303,304,305,306,307,308,309,310,311,312,313,314,315,316,317,318,319,320,321,322,323,324,325,326,327,328,329,330,331,332,333,334,335,336,337,338,339,340,341,342,343,344,345,346,347,348,349,350,351,352,353,354,355,356,357,358,359,360,361,362,363,364,365,366,367,368,369,370,371,372,373,374,375,376,377,378,379,380,381,382,383,384,385,386,387,388,389,390,391,392,393,394,395,396,397,398,399,400,401,402,403,404,405,406,407,408,409,410,411,412,413,414,415,416,417,418,419,420,421,422,423,424,425,426,427,428,429,430,431,432,433,434,435,436,437,438,439,440,441,442,443,444,445,446,447,448,449,450,451,452,453,454,455,456,457,458,459,460,461,462,463,464,465,466,467,468,469,470,471,472,473,474,475,476,477,478,479,480,481,482,483,484,485,486,487,488,489,490,491,492,493,494,495,496,497,498,499,500],"tree_info":[0,0,0,0,0,0,0,0,0,0,0,0,0,0,0,0,0,0,0,0,0,0,0,0,0,0,0,0,0,0,0,0,0,0,0,0,0,0,0,0,0,0,0,0,0,0,0,0,0,0,0,0,0,0,0,0,0,0,0,0,0,0,0,0,0,0,0,0,0,0,0,0,0,0,0,0,0,0,0,0,0,0,0,0,0,0,0,0,0,0,0,0,0,0,0,0,0,0,0,0,0,0,0,0,0,0,0,0,0,0,0,0,0,0,0,0,0,0,0,0,0,0,0,0,0,0,0,0,0,0,0,0,0,0,0,0,0,0,0,0,0,0,0,0,0,0,0,0,0,0,0,0,0,0,0,0,0,0,0,0,0,0,0,0,0,0,0,0,0,0,0,0,0,0,0,0,0,0,0,0,0,0,0,0,0,0,0,0,0,0,0,0,0,0,0,0,0,0,0,0,0,0,0,0,0,0,0,0,0,0,0,0,0,0,0,0,0,0,0,0,0,0,0,0,0,0,0,0,0,0,0,0,0,0,0,0,0,0,0,0,0,0,0,0,0,0,0,0,0,0,0,0,0,0,0,0,0,0,0,0,0,0,0,0,0,0,0,0,0,0,0,0,0,0,0,0,0,0,0,0,0,0,0,0,0,0,0,0,0,0,0,0,0,0,0,0,0,0,0,0,0,0,0,0,0,0,0,0,0,0,0,0,0,0,0,0,0,0,0,0,0,0,0,0,0,0,0,0,0,0,0,0,0,0,0,0,0,0,0,0,0,0,0,0,0,0,0,0,0,0,0,0,0,0,0,0,0,0,0,0,0,0,0,0,0,0,0,0,0,0,0,0,0,0,0,0,0,0,0,0,0,0,0,0,0,0,0,0,0,0,0,0,0,0,0,0,0,0,0,0,0,0,0,0,0,0,0,0,0,0,0,0,0,0,0,0,0,0,0,0,0,0,0,0,0,0,0,0,0,0,0,0,0,0,0,0,0,0,0,0,0,0,0,0,0,0,0,0,0,0,0,0,0,0,0,0,0,0,0,0,0,0,0,0,0,0,0,0,0,0,0,0,0,0,0,0,0,0,0,0,0,0,0,0,0,0,0,0,0,0,0,0,0,0,0,0,0,0,0,0],"trees":[{"base_weights":[-3.1789145E-7,-1.8486958E1,4.621739E0,-1.5152174E0,-3.978261E-1,6.791925E0,-3.7888226E-1,5.07971E-1,3.7922702E0,6.46739E-2,-9.78261E-2,-1.52174E-2,4.342391E0,5.9782602E-2,2.3105589E-1],"categories":[],"categories_nodes":[],"categories_segments":[],"categories_sizes":[],"default_left":[0,0,0,0,0,0,0,0,0,0,0,0,0,0,0],"id":0,"left_children":[1,3,5,-1,-1,7,9,-1,11,-1,-1,-1,13,-1,-1],"loss_changes":[2.1360474E3,3.8109424E2,2.1961893E2,0E0,0E0,1.028913E2,2.0999393E1,0E0,2.160431E1,0E0,0E0,0E0,1.491394E0,0E0,0E0],"parents":[2147483647,0,0,1,1,2,2,5,5,6,6,8,8,12,12],"right_children":[2,4,6,-1,-1,8,10,-1,12,-1,-1,-1,14,-1,-1],"split_conditions":[1.421659E1,3E0,2.3096022E1,-1.5152174E0,-3.978261E-1,9.7E1,1.49009905E1,5.07971E-1,4.6E1,6.46739E-2,-9.78261E-2,-1.52174E-2,1.24E2,5.9782602E-2,2.3105589E-1],"split_indices":[33,0,38,0,0,40,33,0,2,0,0,0,1,0,0],"split_type":[0,0,0,0,0,0,0,0,0,0,0,0,0,0,0],"sum_hessian":[2.3E1,4E0,1.9E1,1E0,3E0,1.3E1,6E0,5E0,8E0,3E0,3E0,1E0,7E0,1E0,6E0],"tree_param":{"num_deleted":"0","num_feature":"41","num_nodes":"15","size_leaf_vector":"1"}},{"base_weights":[-4.8442524E-2,-1.7945217E1,4.428173E0,-1.4773369E0,-3.829076E-1,6.5082994E0,-3.6467525E-1,4.868055E-1,3.6332812E0,6.2248614E-2,-9.4157696E-2,-1.4836884E-2,4.161626E0,2.4640992E-1,1.081502E-1],"categories":[],"categories_nodes":[],"categories_segments":[],"categories_sizes":[],"default_left":[0,0,0,0,0,0,0,0,0,0,0,0,0,0,0],"id":1,"left_children":[1,3,5,-1,-1,7,9,-1,11,-1,-1,-1,13,-1,-1],"loss_changes":[2.002272E3,3.704546E2,2.0176797E2,0E0,0E0,9.454614E1,1.9453983E1,0E0,1.9922539E1,0E0,0E0,0E0,1.5970001E0,0E0,0E0],"parents":[2147483647,0,0,1,1,2,2,5,5,6,6,8,8,12,12],"right_children":[2,4,6,-1,-1,8,10,-1,12,-1,-1,-1,14,-1,-1],"split_conditions":[1.421659E1,3E0,2.3096022E1,-1.4773369E0,-3.829076E-1,9.7E1,1.49009905E1,4.868055E-1,4.6E1,6.2248614E-2,-9.4157696E-2,-1.4836884E-2,1E0,2.4640992E-1,1.081502E-1],"split_indices":[33,0,38,0,0,40,33,0,2,0,0,0,26,0,0],"split_type":[0,0,0,0,0,0,0,0,0,0,0,0,0,0,0],"sum_hessian":[2.3E1,4E0,1.9E1,1E0,3E0,1.3E1,6E0,5E0,8E0,3E0,3E0,1E0,7E0,4E0,3E0],"tree_param":{"num_deleted":"0","num_feature":"41","num_nodes":"15","size_leaf_vector":"1"}},{"base_weights":[-9.042168E-2,-1.7420006E1,4.2464952E0,-1.4404033E0,-3.685487E-1,6.241923E0,-3.510012E-1,4.6681044E-1,3.4855185E0,5.9914302E-2,-9.062691E-2,-1.4465905E-2,3.993538E0,2.588361E-1,1.12414174E-1],"categories":[],"categories_nodes":[],"categories_segments":[],"categories_sizes":[],"default_left":[0,0,0,0,0,0,0,0,0,0,0,0,0,0,0],"id":2,"left_children":[1,3,5,-1,-1,7,9,-1,11,-1,-1,-1,13,-1,-1],"loss_changes":[1.8777413E3,3.5985156E2,1.8567029E2,0E0,0E0,8.6865906E1,1.8022322E1,0E0,1.8414612E1,0E0,0E0,0E0,4.8809204E0,0E0,0E0],"parents":[2147483647,0,0,1,1,2,2,5,5,6,6,8,8,12,12],"right_children":[2,4,6,-1,-1,8,10,-1,12,-1,-1,-1,14,-1,-1],"split_conditions":[1.421659E1,3E0,2.3096022E1,-1.4404033E0,-3.685487E-1,8E0,1.49009905E1,4.6681044E-1,4.6E1,5.9914302E-2,-9.062691E-2,-1.4465905E-2,5.2E1,2.588361E-1,1.12414174E-1],"split_indices":[33,0,38,0,0,35,33,0,2,0,0,0,3,0,0],"split_type":[0,0,0,0,0,0,0,0,0,0,0,0,0,0,0],"sum_hessian":[2.3E1,4E0,1.9E1,1E0,3E0,1.3E1,6E0,5E0,8E0,3E0,3E0,1E0,7E0,3E0,4E0],"tree_param":{"num_deleted":"0","num_feature":"41","num_nodes":"15","size_leaf_vector":"1"}},{"base_weights":[-1.2823646E-1,-1.6910797E1,4.0738153E0,-1.4043932E0,-3.5472822E-1,5.988655E0,-3.3783722E-1,4.5053753E-1,3.3085184E0,5.7667542E-2,-8.72283E-2,-1.4104271E-2,3.7926044E0,9.815102E-2,2.2488753E-1],"categories":[],"categories_nodes":[],"categories_segments":[],"categories_sizes":[],"default_left":[0,0,0,0,0,0,0,0,0,0,0,0,0,0,0],"id":3,"left_children":[1,3,5,-1,-1,7,9,-1,11,-1,-1,-1,13,-1,-1],"loss_changes":[1.7614E3,3.4931238E2,1.7097534E2,0E0,0E0,8.358261E1,1.6695976E1,0E0,1.6713287E1,0E0,0E0,0E0,1.4918289E0,0E0,0E0],"parents":[2147483647,0,0,1,1,2,2,5,5,6,6,8,8,12,12],"right_children":[2,4,6,-1,-1,8,10,-1,12,-1,-1,-1,14,-1,-1],"split_conditions":[1.421659E1,3E0,2.3096022E1,-1.4043932E0,-3.5472822E-1,9.7E1,1.49009905E1,4.5053753E-1,4.6E1,5.7667542E-2,-8.72283E-2,-1.4104271E-2,2E0,9.815102E-2,2.2488753E-1],"split_indices":[33,0,38,0,0,40,33,0,2,0,0,0,39,0,0],"split_type":[0,0,0,0,0,0,0,0,0,0,0,0,0,0,0],"sum_hessian":[2.3E1,4E0,1.9E1,1E0,3E0,1.3E1,6E0,5E0,8E0,3E0,3E0,1E0,7E0,3E0,4E0],"tree_param":{"num_deleted":"0","num_feature":"41","num_nodes":"15","size_leaf_vector":"1"}},{"base_weights":[-1.6470845E-1,-1.641708E1,3.90662E0,-1.3692833E0,-3.414259E-1,5.7434707E0,-3.2517025E-1,4.323484E-1,3.169643E0,5.5504896E-2,-8.395729E-2,-1.3751603E-2,3.6346064E0,2.3505525E-1,1.0272431E-1],"categories":[],"categories_nodes":[],"categories_segments":[],"categories_sizes":[],"default_left":[0,0,0,0,0,0,0,0,0,0,0,0,0,0,0],"id":4,"left_children":[1,3,5,-1,-1,7,9,-1,11,-1,-1,-1,13,-1,-1],"loss_changes":[1.6521853E3,3.388612E2,1.5733096E2,0E0,0E0,7.7215576E1,1.5467242E1,0E0,1.5414459E1,0E0,0E0,0E0,3.8232117E0,0E0,0E0],"parents":[2147483647,0,0,1,1,2,2,5,5,6,6,8,8,12,12],"right_children":[2,4,6,-1,-1,8,10,-1,12,-1,-1,-1,14,-1,-1],"split_conditions":[1.421659E1,3E0,2.3096022E1,-1.3692833E0,-3.414259E-1,8E0,1.49009905E1,4.323484E-1,4.6E1,5.5504896E-2,-8.395729E-2,-1.3751603E-2,5.2E1,2.3505525E-1,1.0272431E-1],"split_indices":[33,0,38,0,0,35,33,0,2,0,0,0,3,0,0],"split_type":[0,0,0,0,0,0,0,0,0,0,0,0,0,0,0],"sum_hessian":[2.3E1,4E0,1.9E1,1E0,3E0,1.3E1,6E0,5E0,8E0,3E0,3E0,1E0,7E0,3E0,4E0],"tree_param":{"num_deleted":"0","num_feature":"41","num_nodes":"15","size_leaf_vector":"1"}},{"base_weights":[-1.9742298E-1,-1.593837E1,3.747685E0,-1.3350512E0,-3.2862255E-1,5.510324E0,-3.1297737E-1,4.1703877E-1,3.0110981E0,5.34235E-2,-8.080902E-2,-1.3407898E-2,3.454525E0,4.775219E-2,3.675159E0,2.2218323E-1,9.939318E-2],"categories":[],"categories_nodes":[],"categories_segments":[],"categories_sizes":[],"default_left":[0,0,0,0,0,0,0,0,0,0,0,0,0,0,0,0,0],"id":5,"left_children":[1,3,5,-1,-1,7,9,-1,11,-1,-1,-1,13,-1,15,-1,-1],"loss_changes":[1.5501255E3,3.2851965E2,1.4487424E2,0E0,0E0,7.392026E1,1.4328985E1,0E0,1.4013344E1,0E0,0E0,0E0,9.018326E-1,0E0,2.4346924E-1,0E0,0E0],"parents":[2147483647,0,0,1,1,2,2,5,5,6,6,8,8,12,12,14,14],"right_children":[2,4,6,-1,-1,8,10,-1,12,-1,-1,-1,14,-1,16,-1,-1],"split_conditions":[1.421659E1,3E0,2.3096022E1,-1.3350512E0,-3.2862255E-1,9.7E1,1.49009905E1,4.1703877E-1,4.6E1,5.34235E-2,-8.080902E-2,-1.3407898E-2,1.24E2,4.775219E-2,4.8E2,2.2218323E-1,9.939318E-2],"split_indices":[33,0,38,0,0,40,33,0,2,0,0,0,1,0,18,0,0],"split_type":[0,0,0,0,0,0,0,0,0,0,0,0,0,0,0,0,0],"sum_hessian":[2.3E1,4E0,1.9E1,1E0,3E0,1.3E1,6E0,5E0,8E0,3E0,3E0,1E0,7E0,1E0,6E0,3E0,3E0],"tree_param":{"num_deleted":"0","num_feature":"41","num_nodes":"17","size_leaf_vector":"1"}},{"base_weights":[-2.2580592E-1,-1.5474187E1,3.5975795E0,-1.3016748E0,-3.1629926E-1,5.290019E0,-3.01239E-1,4.002048E-1,2.8928545E0,5.142021E-2,-7.777863E-2,-1.3072777E-2,3.3198252E0,2.1303749E-1,9.515602E-2],"categories":[],"categories_nodes":[],"categories_segments":[],"categories_sizes":[],"default_left":[0,0,0,0,0,0,0,0,0,0,0,0,0,0,0],"id":6,"left_children":[1,3,5,-1,-1,7,9,-1,11,-1,-1,-1,13,-1,-1],"loss_changes":[1.45488E3,3.1830615E2,1.3356384E2,0E0,0E0,6.793054E1,1.3274469E1,0E0,1.2989166E1,0E0,0E0,0E0,2.5553818E0,0E0,0E0],"parents":[2147483647,0,0,1,1,2,2,5,5,6,6,8,8,12,12],"right_children":[2,4,6,-1,-1,8,10,-1,12,-1,-1,-1,14,-1,-1],"split_conditions":[1.421659E1,3E0,2.3096022E1,-1.3016748E0,-3.1629926E-1,8E0,1.49009905E1,4.002048E-1,4.6E1,5.142021E-2,-7.777863E-2,-1.3072777E-2,5.2E1,2.1303749E-1,9.515602E-2],"split_indices":[33,0,38,0,0,35,33,0,2,0,0,0,3,0,0],"split_type":[0,0,0,0,0,0,0,0,0,0,0,0,0,0,0],"sum_hessian":[2.3E1,4E0,1.9E1,1E0,3E0,1.3E1,6E0,5E0,8E0,3E0,3E0,1E0,7E0,3E0,4E0],"tree_param":{"num_deleted":"0","num_feature":"41","num_nodes":"15","size_leaf_vector":"1"}},{"base_weights":[-2.5405756E-1,1.9420843E0,-1.269133E0,4.626592E0,-3.669692E0,3.8610643E-1,2.5175185E0,-3.0443802E-1,-1.000499E0,3.291844E0,9.299591E-1,2.4661256E-2,-7.486182E-2,8.6853124E-2,2.0118323E-1,6.449547E-2,-1.2746048E-2],"categories":[],"categories_nodes":[],"categories_segments":[],"categories_sizes":[],"default_left":[0,0,0,0,0,0,0,0,0,0,0,0,0,0,0,0,0],"id":7,"left_children":[1,3,-1,5,7,-1,9,-1,11,13,15,-1,-1,-1,-1,-1,-1],"loss_changes":[1.3737587E3,3.634699E2,0E0,8.50188E1,4.556388E1,0E0,1.0460884E1,0E0,4.4484167E0,9.753952E-1,2.4613147E0,0E0,0E0,0E0,0E0,0E0,0E0],"parents":[2147483647,0,0,1,1,3,3,4,4,6,6,8,8,9,9,10,10],"right_children":[2,4,-1,6,8,-1,10,-1,12,14,16,-1,-1,-1,-1,-1,-1],"split_conditions":[1.7E1,2.3647327E1,-1.269133E0,9.7E1,1.421659E1,3.8610643E-1,1.932E4,-3.0443802E-1,1.11E2,2.2E1,1.1E1,2.4661256E-2,-7.486182E-2,8.6853124E-2,2.0118323E-1,6.449547E-2,-1.2746048E-2],"split_indices":[9,38,0,40,33,0,16,0,1,36,0,0,0,0,0,0,0],"split_type":[0,0,0,0,0,0,0,0,0,0,0,0,0,0,0,0,0],"sum_hessian":[2.3E1,2.2E1,1E0,1.5E1,7E0,5E0,1E1,3E0,4E0,6E0,4E0,1E0,3E0,3E0,3E0,3E0,1E0],"tree_param":{"num_deleted":"0","num_feature":"41","num_nodes":"17","size_leaf_vector":"1"}},{"base_weights":[-2.7876696E-1,1.8611208E0,-1.2374047E0,4.4406304E0,-3.5305386E0,7.4003716E0,2.4225326E0,-2.9302168E-1,-9.6051484E-1,1.1089783E-1,3.9966318E-1,3.1684015E0,8.938095E-1,2.40448E-2,-7.205458E-2,8.359613E-2,1.93639E-1,6.207676E-2,-1.242733E-2],"categories":[],"categories_nodes":[],"categories_segments":[],"categories_sizes":[],"default_left":[0,0,0,0,0,0,0,0,0,0,0,0,0,0,0,0,0,0,0],"id":8,"left_children":[1,3,-1,5,7,9,11,-1,13,-1,-1,15,17,-1,-1,-1,-1,-1,-1],"loss_changes":[1.3027378E3,3.3555807E2,0E0,7.764111E1,4.2274048E1,7.069397E-1,9.710548E0,0E0,4.156557E0,0E0,0E0,9.0361786E-1,2.2947123E0,0E0,0E0,0E0,0E0,0E0,0E0],"parents":[2147483647,0,0,1,1,3,3,4,4,5,5,6,6,8,8,11,11,12,12],"right_children":[2,4,-1,6,8,10,12,-1,14,-1,-1,16,18,-1,-1,-1,-1,-1,-1],"split_conditions":[1.7E1,2.3647327E1,-1.2374047E0,9.7E1,1.421659E1,4.9E1,1.932E4,-2.9302168E-1,1.11E2,1.1089783E-1,3.9966318E-1,2.2E1,1.1E1,2.40448E-2,-7.205458E-2,8.359613E-2,1.93639E-1,6.207676E-2,-1.242733E-2],"split_indices":[9,38,0,40,33,3,16,0,1,0,0,36,0,0,0,0,0,0,0],"split_type":[0,0,0,0,0,0,0,0,0,0,0,0,0,0,0,0,0,0,0],"sum_hessian":[2.3E1,2.2E1,1E0,1.5E1,7E0,5E0,1E1,3E0,4E0,1E0,4E0,6E0,4E0,1E0,3E0,3E0,3E0,3E0,1E0],"tree_param":{"num_deleted":"0","num_feature":"41","num_nodes":"19","size_leaf_vector":"1"}},{"base_weights":[-2.9570484E-1,1.7896463E0,-1.2064695E0,4.2709374E0,-3.3966417E0,3.5577223E-1,2.3311212E0,-2.8203335E-1,-9.220932E-1,3.0495856E0,8.5904694E-1,2.3443604E-2,-1.3870525E0,8.0461316E-2,1.8637744E-1,5.9748746E-2,-1.2116623E-2,-7.831345E-2,-2.1235084E-2],"categories":[],"categories_nodes":[],"categories_segments":[],"categories_sizes":[],"default_left":[0,0,0,0,0,0,0,0,0,0,0,0,0,0,0,0,0,0,0],"id":9,"left_children":[1,3,-1,5,7,-1,9,-1,11,13,15,-1,17,-1,-1,-1,-1,-1,-1],"loss_changes":[1.2360215E3,3.104867E2,0E0,7.169818E1,3.9222374E1,0E0,9.014229E0,0E0,3.8840623E0,8.371048E-1,2.139502E0,0E0,2.4678707E-2,0E0,0E0,0E0,0E0,0E0,0E0],"parents":[2147483647,0,0,1,1,3,3,4,4,6,6,8,8,9,9,10,10,12,12],"right_children":[2,4,-1,6,8,-1,10,-1,12,14,16,-1,18,-1,-1,-1,-1,-1,-1],"split_conditions":[1.7E1,2.3647327E1,-1.2064695E0,9.7E1,1.421659E1,3.5577223E-1,1.932E4,-2.8203335E-1,1.11E2,2.2E1,1.1E1,2.3443604E-2,1.6E1,8.0461316E-2,1.8637744E-1,5.9748746E-2,-1.2116623E-2,-7.831345E-2,-2.1235084E-2],"split_indices":[9,38,0,40,33,0,16,0,1,36,0,0,0,0,0,0,0,0,0],"split_type":[0,0,0,0,0,0,0,0,0,0,0,0,0,0,0,0,0,0,0],"sum_hessian":[2.3E1,2.2E1,1E0,1.5E1,7E0,5E0,1E1,3E0,4E0,6E0,4E0,1E0,3E0,3E0,3E0,3E0,1E0,2E0,1E0],"tree_param":{"num_deleted":"0","num_feature":"41","num_nodes":"19","size_leaf_vector":"1"}},{"base_weights":[-3.1818452E-1,1.7137341E0,-1.1763079E0,4.099281E0,-3.271576E0,6.818966E0,2.2431543E0,-2.7145702E-1,-8.912094E-1,9.923096E-2,3.6944556E-1,2.9352264E0,8.2562256E-1,2.2857476E-2,-1.3425865E0,7.744408E-2,1.7938824E-1,5.750828E-2,-1.18137365E-2,-7.570293E-2,-2.070427E-2],"categories":[],"categories_nodes":[],"categories_segments":[],"categories_sizes":[],"default_left":[0,0,0,0,0,0,0,0,0,0,0,0,0,0,0,0,0,0,0,0,0],"id":10,"left_children":[1,3,-1,5,7,9,11,-1,13,-1,-1,15,17,-1,19,-1,-1,-1,-1,-1,-1],"loss_changes":[1.1720787E3,2.86943E2,0E0,6.547327E1,3.624785E1,1.8677063E0,8.367989E0,0E0,3.6568542E0,0E0,0E0,7.7547836E-1,1.9949119E0,0E0,9.898663E-3,0E0,0E0,0E0,0E0,0E0,0E0],"parents":[2147483647,0,0,1,1,3,3,4,4,5,5,6,6,8,8,11,11,12,12,14,14],"right_children":[2,4,-1,6,8,10,12,-1,14,-1,-1,16,18,-1,20,-1,-1,-1,-1,-1,-1],"split_conditions":[1.7E1,2.3647327E1,-1.1763079E0,9.7E1,1.421659E1,4.9E1,1.932E4,-2.7145702E-1,1.11E2,9.923096E-2,3.6944556E-1,2.2E1,1.1E1,2.2857476E-2,1.6E1,7.744408E-2,1.7938824E-1,5.750828E-2,-1.18137365E-2,-7.570293E-2,-2.070427E-2],"split_indices":[9,38,0,40,33,3,16,0,1,0,0,36,0,0,0,0,0,0,0,0,0],"split_type":[0,0,0,0,0,0,0,0,0,0,0,0,0,0,0,0,0,0,0,0,0],"sum_hessian":[2.3E1,2.2E1,1E0,1.5E1,7E0,5E0,1E1,3E0,4E0,1E0,4E0,6E0,4E0,1E0,3E0,3E0,3E0,3E0,1E0,2E0,1E0],"tree_param":{"num_deleted":"0","num_feature":"41","num_nodes":"21","size_leaf_vector":"1"}},{"base_weights":[-3.3353075E-1,1.6465769E0,-1.1469002E0,3.9425159E0,-3.151123E0,6.556131E0,2.158497E0,-2.612775E-1,-8.613571E-1,9.675026E-2,3.5466775E-1,2.8251538E0,7.9347837E-1,2.2286033E-2,-6.497784E-2,7.4539855E-2,1.7266111E-1,5.535164E-2,-1.1518478E-2],"categories":[],"categories_nodes":[],"categories_segments":[],"categories_sizes":[],"default_left":[0,0,0,0,0,0,0,0,0,0,0,0,0,0,0,0,0,0,0],"id":11,"left_children":[1,3,-1,5,7,9,11,-1,13,-1,-1,15,17,-1,-1,-1,-1,-1,-1],"loss_changes":[1.1119921E3,2.6577356E2,0E0,6.0452408E1,3.3498543E1,1.1697998E0,7.7682915E0,0E0,3.4430437E0,0E0,0E0,7.184181E-1,1.8601866E0,0E0,0E0,0E0,0E0,0E0,0E0],"parents":[2147483647,0,0,1,1,3,3,4,4,5,5,6,6,8,8,11,11,12,12],"right_children":[2,4,-1,6,8,10,12,-1,14,-1,-1,16,18,-1,-1,-1,-1,-1,-1],"split_conditions":[1.7E1,2.3647327E1,-1.1469002E0,9.7E1,1.421659E1,4.9E1,1.932E4,-2.612775E-1,1.11E2,9.675026E-2,3.5466775E-1,2.2E1,1.1E1,2.2286033E-2,-6.497784E-2,7.4539855E-2,1.7266111E-1,5.535164E-2,-1.1518478E-2],"split_indices":[9,38,0,40,33,3,16,0,1,0,0,36,0,0,0,0,0,0,0],"split_type":[0,0,0,0,0,0,0,0,0,0,0,0,0,0,0,0,0,0,0],"sum_hessian":[2.3E1,2.2E1,1E0,1.5E1,7E0,5E0,1E1,3E0,4E0,1E0,4E0,6E0,4E0,1E0,3E0,3E0,3E0,3E0,1E0],"tree_param":{"num_deleted":"0","num_feature":"41","num_nodes":"19","size_leaf_vector":"1"}},{"base_weights":[-3.4637132E-1,1.583313E0,-1.1182278E0,3.7917938E0,-3.0315628E0,6.3035607E0,2.0770304E0,-2.5147963E-1,-8.2682645E-1,9.4331555E-2,3.4048104E-1,2.719211E0,7.625717E-1,2.1728897E-2,-1.2508221E0,7.1744636E-2,1.6618633E-1,5.327597E-2,-1.1230469E-2,-7.101338E-2,-1.8562127E-2],"categories":[],"categories_nodes":[],"categories_segments":[],"categories_sizes":[],"default_left":[0,0,0,0,0,0,0,0,0,0,0,0,0,0,0,0,0,0,0,0,0],"id":12,"left_children":[1,3,-1,5,7,9,11,-1,13,-1,-1,15,17,-1,19,-1,-1,-1,-1,-1,-1],"loss_changes":[1.0551255E3,2.4590796E2,0E0,5.582068E1,3.1082428E1,5.641327E-1,7.2117233E0,0E0,3.2177293E0,0E0,0E0,6.655464E-1,1.7346463E0,0E0,6.889963E-2,0E0,0E0,0E0,0E0,0E0,0E0],"parents":[2147483647,0,0,1,1,3,3,4,4,5,5,6,6,8,8,11,11,12,12,14,14],"right_children":[2,4,-1,6,8,10,12,-1,14,-1,-1,16,18,-1,20,-1,-1,-1,-1,-1,-1],"split_conditions":[1.7E1,2.3647327E1,-1.1182278E0,9.7E1,1.421659E1,4.9E1,1.932E4,-2.5147963E-1,1.11E2,9.4331555E-2,3.4048104E-1,2.2E1,1.1E1,2.1728897E-2,1.6E1,7.1744636E-2,1.6618633E-1,5.327597E-2,-1.1230469E-2,-7.101338E-2,-1.8562127E-2],"split_indices":[9,38,0,40,33,3,16,0,1,0,0,36,0,0,0,0,0,0,0,0,0],"split_type":[0,0,0,0,0,0,0,0,0,0,0,0,0,0,0,0,0,0,0,0,0],"sum_hessian":[2.3E1,2.2E1,1E0,1.5E1,7E0,5E0,1E1,3E0,4E0,1E0,4E0,6E0,4E0,1E0,3E0,3E0,3E0,3E0,1E0,2E0,1E0],"tree_param":{"num_deleted":"0","num_feature":"41","num_nodes":"21","size_leaf_vector":"1"}},{"base_weights":[-3.5916838E-1,1.5213411E0,-1.0902722E0,3.6468778E0,-2.9199E0,6.0608497E0,1.9986316E0,-2.4204913E-1,-7.9905397E-1,9.1973305E-2,3.2686165E-1,2.617241E0,7.3285216E-1,2.1185685E-2,-1.2106743E0,6.905413E-2,1.5995446E-1,1.0255623E0,-1.0949708E-2,-6.8646245E-2,-1.809807E-2,5.7804365E-2,1.5849685E-2],"categories":[],"categories_nodes":[],"categories_segments":[],"categories_sizes":[],"default_left":[0,0,0,0,0,0,0,0,0,0,0,0,0,0,0,0,0,0,0,0,0,0,0],"id":13,"left_children":[1,3,-1,5,7,9,11,-1,13,-1,-1,15,17,-1,19,-1,-1,21,-1,-1,-1,-1,-1],"loss_changes":[1.0010916E3,2.2776901E2,0E0,5.1547714E1,2.8726349E1,4.096985E-2,6.695202E0,0E0,3.0295594E0,0E0,0E0,6.165886E-1,1.6176672E0,0E0,5.3870678E-2,0E0,0E0,3.4713745E-3,0E0,0E0,0E0,0E0,0E0],"parents":[2147483647,0,0,1,1,3,3,4,4,5,5,6,6,8,8,11,11,12,12,14,14,17,17],"right_children":[2,4,-1,6,8,10,12,-1,14,-1,-1,16,18,-1,20,-1,-1,22,-1,-1,-1,-1,-1],"split_conditions":[1.7E1,2.3647327E1,-1.0902722E0,9.7E1,1.421659E1,4.9E1,1.932E4,-2.4204913E-1,1.11E2,9.1973305E-2,3.2686165E-1,2.2E1,1.1E1,2.1185685E-2,1.6E1,6.905413E-2,1.5995446E-1,5E1,-1.0949708E-2,-6.8646245E-2,-1.809807E-2,5.7804365E-2,1.5849685E-2],"split_indices":[9,38,0,40,33,3,16,0,1,0,0,36,0,0,0,0,0,2,0,0,0,0,0],"split_type":[0,0,0,0,0,0,0,0,0,0,0,0,0,0,0,0,0,0,0,0,0,0,0],"sum_hessian":[2.3E1,2.2E1,1E0,1.5E1,7E0,5E0,1E1,3E0,4E0,1E0,4E0,6E0,4E0,1E0,3E0,3E0,3E0,3E0,1E0,2E0,1E0,2E0,1E0],"tree_param":{"num_deleted":"0","num_feature":"41","num_nodes":"23","size_leaf_vector":"1"}},{"base_weights":[-3.6984858E-1,1.4627935E0,-1.0630153E0,3.508943E0,-2.812355E0,2.9138076E-1,1.9252181E0,-2.3297225E-1,-7.722122E-1,2.519093E0,7.087494E-1,2.0656014E-2,-1.1718254E0,6.646462E-2,1.5395604E-1,4.963484E-2,-1.0676003E-2,-6.635793E-2,-1.7645646E-2],"categories":[],"categories_nodes":[],"categories_segments":[],"categories_sizes":[],"default_left":[0,0,0,0,0,0,0,0,0,0,0,0,0,0,0,0,0,0,0],"id":14,"left_children":[1,3,-1,5,7,-1,9,-1,11,13,15,-1,17,-1,-1,-1,-1,-1,-1],"loss_changes":[9.4993304E2,2.1106303E2,0E0,4.753479E1,2.6548538E1,0E0,6.1613274E0,0E0,2.8524773E0,5.711975E-1,1.5213404E0,0E0,4.0445805E-2,0E0,0E0,0E0,0E0,0E0,0E0],"parents":[2147483647,0,0,1,1,3,3,4,4,6,6,8,8,9,9,10,10,12,12],"right_children":[2,4,-1,6,8,-1,10,-1,12,14,16,-1,18,-1,-1,-1,-1,-1,-1],"split_conditions":[1.7E1,2.3647327E1,-1.0630153E0,9.7E1,1.421659E1,2.9138076E-1,1.932E4,-2.3297225E-1,1.11E2,2.2E1,1.1E1,2.0656014E-2,1.6E1,6.646462E-2,1.5395604E-1,4.963484E-2,-1.0676003E-2,-6.635793E-2,-1.7645646E-2],"split_indices":[9,38,0,40,33,0,16,0,1,36,0,0,0,0,0,0,0,0,0],"split_type":[0,0,0,0,0,0,0,0,0,0,0,0,0,0,0,0,0,0,0],"sum_hessian":[2.3E1,2.2E1,1E0,1.5E1,7E0,5E0,1E1,3E0,4E0,6E0,4E0,1E0,3E0,3E0,3E0,3E0,1E0,2E0,1E0],"tree_param":{"num_deleted":"0","num_feature":"41","num_nodes":"19","size_leaf_vector":"1"}},{"base_weights":[-3.850471E-1,1.4007161E0,-1.03644E0,3.3679175E0,-2.7087765E0,5.584797E0,1.8525363E0,-4.0726485E0,-3.2674217E-1,8.238945E-2,3.0213204E-1,2.424627E0,6.81102E-1,-2.2423582E-1,-6.0609438E-2,2.0139694E-2,-3.5209276E-2,6.397209E-2,1.4818278E-1,9.5546913E-1,-1.0409164E-2,5.422287E-2,1.4212608E-2],"categories":[],"categories_nodes":[],"categories_segments":[],"categories_sizes":[],"default_left":[0,0,0,0,0,0,0,0,0,0,0,0,0,0,0,0,0,0,0,0,0,0,0],"id":15,"left_children":[1,3,-1,5,7,9,11,13,15,-1,-1,17,19,-1,-1,-1,-1,-1,-1,21,-1,-1,-1],"loss_changes":[9.009341E2,1.9505954E2,0E0,4.3404617E1,2.4659615E1,8.582306E-1,5.720413E0,4.5719147E-1,1.3850758E0,0E0,0E0,5.2919006E-1,1.4188662E0,0E0,0E0,0E0,0E0,0E0,0E0,3.8057327E-2,0E0,0E0,0E0],"parents":[2147483647,0,0,1,1,3,3,4,4,5,5,6,6,7,7,8,8,11,11,12,12,19,19],"right_children":[2,4,-1,6,8,10,12,14,16,-1,-1,18,20,-1,-1,-1,-1,-1,-1,22,-1,-1,-1],"split_conditions":[1.7E1,2.3647327E1,-1.03644E0,9.7E1,1.908E4,4.9E1,1.932E4,5.2E1,1.11E2,8.238945E-2,3.0213204E-1,2.2E1,1.1E1,-2.2423582E-1,-6.0609438E-2,2.0139694E-2,-3.5209276E-2,6.397209E-2,1.4818278E-1,5E1,-1.0409164E-2,5.422287E-2,1.4212608E-2],"split_indices":[9,38,0,40,16,3,16,2,1,0,0,36,0,0,0,0,0,0,0,2,0,0,0],"split_type":[0,0,0,0,0,0,0,0,0,0,0,0,0,0,0,0,0,0,0,0,0,0,0],"sum_hessian":[2.3E1,2.2E1,1E0,1.5E1,7E0,5E0,1E1,4E0,3E0,1E0,4E0,6E0,4E0,3E0,1E0,1E0,2E0,3E0,3E0,3E0,1E0,2E0,1E0],"tree_param":{"num_deleted":"0","num_feature":"41","num_nodes":"23","size_leaf_vector":"1"}},{"base_weights":[-3.9419746E-1,1.3461052E0,-1.0105289E0,3.24044E0,-2.6108274E0,5.369644E0,1.7844703E0,-3.9259858E0,-3.1417274E-1,8.032971E-2,2.9004678E-1,1.1574919E0,1.5352911E-1,-2.1582699E-1,-5.909424E-2,1.9636154E-2,-3.403562E-2,-1.0149002E-2,1.3529234E0,7.335069E-2,1.385727E-2],"categories":[],"categories_nodes":[],"categories_segments":[],"categories_sizes":[],"default_left":[0,0,0,0,0,0,0,0,0,0,0,0,0,0,0,0,0,0,0,0,0],"id":16,"left_children":[1,3,-1,5,7,9,11,13,15,-1,-1,17,-1,-1,-1,-1,-1,-1,19,-1,-1],"loss_changes":[8.548816E2,1.808626E2,0E0,4.0018936E1,2.2930279E1,4.1807556E-1,5.315834E0,2.5694275E-1,1.3037529E0,0E0,0E0,2.6675282E0,0E0,0E0,0E0,0E0,0E0,0E0,5.753107E-1,0E0,0E0],"parents":[2147483647,0,0,1,1,3,3,4,4,5,5,6,6,7,7,8,8,11,11,18,18],"right_children":[2,4,-1,6,8,10,12,14,16,-1,-1,18,-1,-1,-1,-1,-1,-1,20,-1,-1],"split_conditions":[1.7E1,2.3647327E1,-1.0105289E0,9.7E1,1.908E4,4.9E1,2.5E1,5.2E1,1.11E2,8.032971E-2,2.9004678E-1,5E1,1.5352911E-1,-2.1582699E-1,-5.909424E-2,1.9636154E-2,-3.403562E-2,-1.0149002E-2,5.2E1,7.335069E-2,1.385727E-2],"split_indices":[9,38,0,40,16,3,6,2,1,0,0,3,0,0,0,0,0,0,2,0,0],"split_type":[0,0,0,0,0,0,0,0,0,0,0,0,0,0,0,0,0,0,0,0,0],"sum_hessian":[2.3E1,2.2E1,1E0,1.5E1,7E0,5E0,1E1,4E0,3E0,1E0,4E0,8E0,2E0,3E0,1E0,1E0,2E0,1E0,7E0,6E0,1E0],"tree_param":{"num_deleted":"0","num_feature":"41","num_nodes":"21","size_leaf_vector":"1"}},{"base_weights":[-4.0360704E-1,1.2923504E0,-9.8526573E-1,3.1159792E0,-2.516451E0,5.1628914E0,1.7162108E0,-3.7846694E0,-3.020649E-1,7.832146E-2,2.7844492E-1,1.1081805E0,1.4841156E-1,-2.0773344E-1,-5.7616808E-2,1.9145204E-2,-3.290113E-2,-9.895325E-3,1.2961798E0,7.020716E-2,1.3510895E-2],"categories":[],"categories_nodes":[],"categories_segments":[],"categories_sizes":[],"default_left":[0,0,0,0,0,0,0,0,0,0,0,0,0,0,0,0,0,0,0,0,0],"id":17,"left_children":[1,3,-1,5,7,9,11,13,15,-1,-1,17,-1,-1,-1,-1,-1,-1,19,-1,-1],"loss_changes":[8.111032E2,1.6759552E2,0E0,3.6982635E1,2.1323387E1,3.7826538E-2,5.0845947E0,8.2229614E-2,1.2272393E0,0E0,0E0,2.4664116E0,0E0,0E0,0E0,0E0,0E0,0E0,5.067072E-1,0E0,0E0],"parents":[2147483647,0,0,1,1,3,3,4,4,5,5,6,6,7,7,8,8,11,11,18,18],"right_children":[2,4,-1,6,8,10,12,14,16,-1,-1,18,-1,-1,-1,-1,-1,-1,20,-1,-1],"split_conditions":[1.7E1,2.3647327E1,-9.8526573E-1,9.7E1,1.908E4,4.9E1,2.5E1,5.2E1,1.11E2,7.832146E-2,2.7844492E-1,5E1,1.4841156E-1,-2.0773344E-1,-5.7616808E-2,1.9145204E-2,-3.290113E-2,-9.895325E-3,5.2E1,7.020716E-2,1.3510895E-2],"split_indices":[9,38,0,40,16,3,6,2,1,0,0,3,0,0,0,0,0,0,2,0,0],"split_type":[0,0,0,0,0,0,0,0,0,0,0,0,0,0,0,0,0,0,0,0,0],"sum_hessian":[2.3E1,2.2E1,1E0,1.5E1,7E0,5E0,1E1,4E0,3E0,1E0,4E0,8E0,2E0,3E0,1E0,1E0,2E0,1E0,7E0,6E0,1E0],"tree_param":{"num_deleted":"0","num_feature":"41","num_nodes":"21","size_leaf_vector":"1"}},{"base_weights":[-4.119835E-1,1.2407721E0,-9.6063405E-1,2.9963684E0,-2.425517E0,2.4821046E-1,1.6506035E0,-1.824253E-1,-2.9040146E-1,1.060975E0,1.4346442E-1,1.866665E-2,-3.1804528E-2,-9.647942E-3,1.2418365E0,6.719834E-2,1.3173103E-2],"categories":[],"categories_nodes":[],"categories_segments":[],"categories_sizes":[],"default_left":[0,0,0,0,0,0,0,0,0,0,0,0,0,0,0,0,0],"id":18,"left_children":[1,3,-1,5,7,-1,9,-1,11,13,-1,-1,-1,-1,15,-1,-1],"loss_changes":[7.6958954E2,1.553078E2,0E0,3.417807E1,1.9830254E1,0E0,4.8600388E0,0E0,1.1552567E0,2.2807188E0,0E0,0E0,0E0,0E0,4.452896E-1,0E0,0E0],"parents":[2147483647,0,0,1,1,3,3,4,4,6,6,8,8,9,9,14,14],"right_children":[2,4,-1,6,8,-1,10,-1,12,14,-1,-1,-1,-1,16,-1,-1],"split_conditions":[1.7E1,2.3647327E1,-9.6063405E-1,9.7E1,1.908E4,2.4821046E-1,2.5E1,-1.824253E-1,1.11E2,5E1,1.4346442E-1,1.866665E-2,-3.1804528E-2,-9.647942E-3,5.2E1,6.719834E-2,1.3173103E-2],"split_indices":[9,38,0,40,16,0,6,0,1,3,0,0,0,0,2,0,0],"split_type":[0,0,0,0,0,0,0,0,0,0,0,0,0,0,0,0,0],"sum_hessian":[2.3E1,2.2E1,1E0,1.5E1,7E0,5E0,1E1,4E0,3E0,8E0,2E0,1E0,2E0,1E0,7E0,6E0,1E0],"tree_param":{"num_deleted":"0","num_feature":"41","num_nodes":"17","size_leaf_vector":"1"}},{"base_weights":[-4.202919E-1,1.1903359E0,-9.3661827E-1,2.8754506E0,-2.3286858E0,4.75737E0,1.5875446E0,-1.9310246E-1,-6.3625795E-1,7.01582E-2,2.573789E-1,1.0157835E0,1.386823E-1,1.819992E-2,-9.773216E-1,-9.406663E-3,1.1897898E0,-5.5917617E-2,-1.3855743E-2,6.431836E-2,1.2843705E-2],"categories":[],"categories_nodes":[],"categories_segments":[],"categories_sizes":[],"default_left":[0,0,0,0,0,0,0,0,0,0,0,0,0,0,0,0,0,0,0,0,0],"id":19,"left_children":[1,3,-1,5,7,9,11,-1,13,-1,-1,15,-1,-1,17,-1,19,-1,-1,-1,-1],"loss_changes":[7.3015216E2,1.4308499E2,0E0,3.122725E1,1.8303596E1,6.301422E-1,4.6424103E0,0E0,2.061499E0,0E0,0E0,2.1092405E0,0E0,0E0,8.509016E-2,0E0,3.9035416E-1,0E0,0E0,0E0,0E0],"parents":[2147483647,0,0,1,1,3,3,4,4,5,5,6,6,8,8,11,11,14,14,16,16],"right_children":[2,4,-1,6,8,10,12,-1,14,-1,-1,16,-1,-1,18,-1,20,-1,-1,-1,-1],"split_conditions":[1.7E1,2.3647327E1,-9.3661827E-1,9.7E1,1.421659E1,4.9E1,2.5E1,-1.9310246E-1,1.11E2,7.01582E-2,2.573789E-1,5E1,1.386823E-1,1.819992E-2,1.6E1,-9.406663E-3,5.2E1,-5.5917617E-2,-1.3855743E-2,6.431836E-2,1.2843705E-2],"split_indices":[9,38,0,40,33,3,6,0,1,0,0,3,0,0,0,0,2,0,0,0,0],"split_type":[0,0,0,0,0,0,0,0,0,0,0,0,0,0,0,0,0,0,0,0,0],"sum_hessian":[2.3E1,2.2E1,1E0,1.5E1,7E0,5E0,1E1,3E0,4E0,1E0,4E0,8E0,2E0,1E0,3E0,1E0,7E0,2E0,1E0,6E0,1E0],"tree_param":{"num_deleted":"0","num_feature":"41","num_nodes":"21","size_leaf_vector":"1"}},{"base_weights":[2.3257062E0,-1.2351115E0,8.711526E0,2.7219942E0,-8.985433E-1,1.0291342E0,5.5504006E-1,6.5668945E0,-1.5117624E0,1.2609254E-1,-4.890747E-2,-4.890747E-2,3.9937136E-1,2.2899373E-1,-2.989075E-1,1.177208E0,-5.558116E-2,1.5535736E-2,6.812337E-2],"categories":[],"categories_nodes":[],"categories_segments":[],"categories_sizes":[],"default_left":[0,0,0,0,0,0,0,0,0,0,0,0,0,0,0,0,0,0,0],"id":20,"left_children":[1,3,5,7,-1,9,-1,11,13,-1,-1,-1,-1,15,-1,17,-1,-1,-1],"loss_changes":[5.11012E2,1.0422938E3,1.3541858E2,2.2154642E2,0E0,1.1455662E1,0E0,8.2838745E1,5.579319E1,0E0,0E0,0E0,0E0,8.935764E0,0E0,2.1876526E-1,0E0,0E0,0E0],"parents":[2147483647,0,0,1,1,2,2,3,3,5,5,7,7,8,8,13,13,15,15],"right_children":[2,4,6,8,-1,10,-1,12,14,-1,-1,-1,-1,16,-1,18,-1,-1,-1],"split_conditions":[1.824E4,1.14E3,4.2E1,1.2E1,-8.985433E-1,8E0,5.5504006E-1,1.08E2,4.8E1,1.2609254E-1,-4.890747E-2,-4.890747E-2,3.9937136E-1,1.3E1,-2.989075E-1,1.3E1,-5.558116E-2,1.5535736E-2,6.812337E-2],"split_indices":[16,18,2,0,0,0,0,1,4,0,0,0,0,9,0,0,0,0,0],"split_type":[0,0,0,0,0,0,0,0,0,0,0,0,0,0,0,0,0,0,0],"sum_hessian":[2.1E1,1.4E1,7E0,1.2E1,2E0,2E0,5E0,6E0,6E0,1E0,1E0,1E0,5E0,5E0,1E0,3E0,2E0,1E0,2E0],"tree_param":{"num_deleted":"0","num_feature":"41","num_nodes":"19","size_leaf_vector":"1"}},{"base_weights":[2.200936E0,-1.227949E0,8.354979E0,2.592021E0,-8.685918E-1,1.0034052E0,5.3191346E-1,6.2886176E0,-1.4748644E0,1.2294026E-1,-4.768486E-2,-4.768486E-2,3.82731E-1,2.2222392E-1,-2.9143485E-1,1.1392632E0,-5.3728487E-2,1.51474E-2,6.585261E-2],"categories":[],"categories_nodes":[],"categories_segments":[],"categories_sizes":[],"default_left":[0,0,0,0,0,0,0,0,0,0,0,0,0,0,0,0,0,0,0],"id":21,"left_children":[1,3,5,7,-1,9,-1,11,13,-1,-1,-1,-1,15,-1,17,-1,-1,-1],"loss_changes":[4.7449255E2,9.700657E2,1.23611694E2,2.0471211E2,0E0,1.0890056E1,0E0,7.655133E1,5.301715E1,0E0,0E0,0E0,0E0,8.359482E0,0E0,1.9575262E-1,0E0,0E0,0E0],"parents":[2147483647,0,0,1,1,2,2,3,3,5,5,7,7,8,8,13,13,15,15],"right_children":[2,4,6,8,-1,10,-1,12,14,-1,-1,-1,-1,16,-1,18,-1,-1,-1],"split_conditions":[1.824E4,1.14E3,4.2E1,1.2E1,-8.685918E-1,8E0,5.3191346E-1,1.08E2,4.8E1,1.2294026E-1,-4.768486E-2,-4.768486E-2,3.82731E-1,1.3E1,-2.9143485E-1,1.3E1,-5.3728487E-2,1.51474E-2,6.585261E-2],"split_indices":[16,18,2,0,0,0,0,1,4,0,0,0,0,9,0,0,0,0,0],"split_type":[0,0,0,0,0,0,0,0,0,0,0,0,0,0,0,0,0,0,0],"sum_hessian":[2.1E1,1.4E1,7E0,1.2E1,2E0,2E0,5E0,6E0,6E0,1E0,1E0,1E0,5E0,5E0,1E0,3E0,2E0,1E0,2E0],"tree_param":{"num_deleted":"0","num_feature":"41","num_nodes":"19","size_leaf_vector":"1"}},{"base_weights":[2.082229E0,-1.2197311E0,8.013125E0,2.4678738E0,-8.396388E-1,9.783198E-1,5.0975037E-1,6.0220523E0,-1.438858E0,1.1986675E-1,-4.6492767E-2,-4.6492767E-2,3.6678398E-1,2.1565883E-1,-2.84149E-1,1.1025524E0,-5.193761E-2,1.4768791E-2,6.3657634E-2],"categories":[],"categories_nodes":[],"categories_segments":[],"categories_sizes":[],"default_left":[0,0,0,0,0,0,0,0,0,0,0,0,0,0,0,0,0,0,0],"id":22,"left_children":[1,3,5,7,-1,9,-1,11,13,-1,-1,-1,-1,15,-1,17,-1,-1,-1],"loss_changes":[4.4061273E2,9.02851E2,1.1281891E2,1.8917274E2,0E0,1.0352363E1,0E0,7.07466E1,5.037938E1,0E0,0E0,0E0,0E0,7.820454E0,0E0,1.7475986E-1,0E0,0E0,0E0],"parents":[2147483647,0,0,1,1,2,2,3,3,5,5,7,7,8,8,13,13,15,15],"right_children":[2,4,6,8,-1,10,-1,12,14,-1,-1,-1,-1,16,-1,18,-1,-1,-1],"split_conditions":[1.824E4,1.14E3,4.2E1,1.2E1,-8.396388E-1,8E0,5.0975037E-1,1.08E2,4.8E1,1.1986675E-1,-4.6492767E-2,-4.6492767E-2,3.6678398E-1,1.3E1,-2.84149E-1,1.3E1,-5.193761E-2,1.4768791E-2,6.3657634E-2],"split_indices":[16,18,2,0,0,0,0,1,4,0,0,0,0,9,0,0,0,0,0],"split_type":[0,0,0,0,0,0,0,0,0,0,0,0,0,0,0,0,0,0,0],"sum_hessian":[2.1E1,1.4E1,7E0,1.2E1,2E0,2E0,5E0,6E0,6E0,1E0,1E0,1E0,5E0,5E0,1E0,3E0,2E0,1E0,2E0],"tree_param":{"num_deleted":"0","num_feature":"41","num_nodes":"19","size_leaf_vector":"1"}},{"base_weights":[1.9693049E0,-1.2105448E0,7.68536E0,2.3492982E0,-8.116509E-1,9.538625E-1,4.8851076E-1,5.766706E0,-1.4037236E0,1.1687012E-1,-4.533043E-2,-4.533043E-2,3.5150135E-1,2.0929082E-1,-2.7704525E-1,1.06703E0,-5.020625E-2,1.43995285E-2,6.1535645E-2],"categories":[],"categories_nodes":[],"categories_segments":[],"categories_sizes":[],"default_left":[0,0,0,0,0,0,0,0,0,0,0,0,0,0,0,0,0,0,0],"id":23,"left_children":[1,3,5,7,-1,9,-1,11,13,-1,-1,-1,-1,15,-1,17,-1,-1,-1],"loss_changes":[4.091798E2,8.403009E2,1.029541E2,1.7482774E2,0E0,9.841216E0,0E0,6.538724E1,4.7872993E1,0E0,0E0,0E0,0E0,7.316197E0,0E0,1.5562868E-1,0E0,0E0,0E0],"parents":[2147483647,0,0,1,1,2,2,3,3,5,5,7,7,8,8,13,13,15,15],"right_children":[2,4,6,8,-1,10,-1,12,14,-1,-1,-1,-1,16,-1,18,-1,-1,-1],"split_conditions":[1.824E4,1.14E3,4.2E1,1.2E1,-8.116509E-1,8E0,4.8851076E-1,1.08E2,4.8E1,1.1687012E-1,-4.533043E-2,-4.533043E-2,3.5150135E-1,1.3E1,-2.7704525E-1,1.3E1,-5.020625E-2,1.43995285E-2,6.1535645E-2],"split_indices":[16,18,2,0,0,0,0,1,4,0,0,0,0,9,0,0,0,0,0],"split_type":[0,0,0,0,0,0,0,0,0,0,0,0,0,0,0,0,0,0,0],"sum_hessian":[2.1E1,1.4E1,7E0,1.2E1,2E0,2E0,5E0,6E0,6E0,1E0,1E0,1E0,5E0,5E0,1E0,3E0,2E0,1E0,2E0],"tree_param":{"num_deleted":"0","num_feature":"41","num_nodes":"19","size_leaf_vector":"1"}},{"base_weights":[1.8618976E0,-1.20047E0,7.3710995E0,2.2360535E0,-7.845957E-1,9.300181E-1,4.681562E-1,5.52211E0,-1.3694392E0,1.1394844E-1,-4.4197083E-2,-4.4197083E-2,3.3685544E-1,2.0311482E-1,-2.701191E-1,1.0326614E0,-4.8532616E-2,1.4039612E-2,5.948436E-2],"categories":[],"categories_nodes":[],"categories_segments":[],"categories_sizes":[],"default_left":[0,0,0,0,0,0,0,0,0,0,0,0,0,0,0,0,0,0,0],"id":24,"left_children":[1,3,5,7,-1,9,-1,11,13,-1,-1,-1,-1,15,-1,17,-1,-1,-1],"loss_changes":[3.800152E2,7.8209076E2,9.3938416E1,1.6158429E2,0E0,9.355303E0,0E0,6.043863E1,4.5491447E1,0E0,0E0,0E0,0E0,6.8445225E0,0E0,1.3819599E-1,0E0,0E0,0E0],"parents":[2147483647,0,0,1,1,2,2,3,3,5,5,7,7,8,8,13,13,15,15],"right_children":[2,4,6,8,-1,10,-1,12,14,-1,-1,-1,-1,16,-1,18,-1,-1,-1],"split_conditions":[1.824E4,1.14E3,4.2E1,1.2E1,-7.845957E-1,8E0,4.681562E-1,1.08E2,4.8E1,1.1394844E-1,-4.4197083E-2,-4.4197083E-2,3.3685544E-1,1.3E1,-2.701191E-1,1.3E1,-4.8532616E-2,1.4039612E-2,5.948436E-2],"split_indices":[16,18,2,0,0,0,0,1,4,0,0,0,0,9,0,0,0,0,0],"split_type":[0,0,0,0,0,0,0,0,0,0,0,0,0,0,0,0,0,0,0],"sum_hessian":[2.1E1,1.4E1,7E0,1.2E1,2E0,2E0,5E0,6E0,6E0,1E0,1E0,1E0,5E0,5E0,1E0,3E0,2E0,1E0,2E0],"tree_param":{"num_deleted":"0","num_feature":"41","num_nodes":"19","size_leaf_vector":"1"}},{"base_weights":[1.7597511E0,-1.1895833E0,7.069784E0,2.1279073E0,-7.5844246E-1,-4.3092158E-2,8.3259945E0,5.2878146E0,-1.3359865E0,1.1109982E-1,4.4864973E-1,-4.3092158E-2,3.2281992E-1,1.9712321E-1,-2.6336613E-1,9.994087E-1,-4.6914928E-2,1.368866E-2,5.7501476E-2],"categories":[],"categories_nodes":[],"categories_segments":[],"categories_sizes":[],"default_left":[0,0,0,0,0,0,0,0,0,0,0,0,0,0,0,0,0,0,0],"id":25,"left_children":[1,3,5,7,-1,-1,9,11,13,-1,-1,-1,-1,15,-1,17,-1,-1,-1],"loss_changes":[3.529535E2,7.279192E2,8.688602E1,1.4935703E2,0E0,0E0,7.7070312E0,5.5869125E1,4.32285E1,0E0,0E0,0E0,0E0,6.4033384E0,0E0,1.2233591E-1,0E0,0E0,0E0],"parents":[2147483647,0,0,1,1,2,2,3,3,6,6,7,7,8,8,13,13,15,15],"right_children":[2,4,6,8,-1,-1,10,12,14,-1,-1,-1,-1,16,-1,18,-1,-1,-1],"split_conditions":[1.824E4,1.14E3,4.4E1,1.2E1,-7.5844246E-1,-4.3092158E-2,4.2E1,1.08E2,4.8E1,1.1109982E-1,4.4864973E-1,-4.3092158E-2,3.2281992E-1,1.3E1,-2.6336613E-1,1.3E1,-4.6914928E-2,1.368866E-2,5.7501476E-2],"split_indices":[16,18,3,0,0,0,2,1,4,0,0,0,0,9,0,0,0,0,0],"split_type":[0,0,0,0,0,0,0,0,0,0,0,0,0,0,0,0,0,0,0],"sum_hessian":[2.1E1,1.4E1,7E0,1.2E1,2E0,1E0,6E0,6E0,6E0,1E0,5E0,1E0,5E0,5E0,1E0,3E0,2E0,1E0,2E0],"tree_param":{"num_deleted":"0","num_feature":"41","num_nodes":"19","size_leaf_vector":"1"}},{"base_weights":[1.6626205E0,3.5920668E0,-5.6159105E0,-3.2883606E0,6.491336E0,-5.211811E-1,-6.498707E-1,2.1339855E0,-4.7110176E-1,7.6820827E0,-3.8513184E-2,-6.253777E-2,4.168854E-2,1.7027563E-1,-4.2014886E-2,4.1417685E-1,4.168854E-2,1.3346481E-2,-1.623497E-2],"categories":[],"categories_nodes":[],"categories_segments":[],"categories_sizes":[],"default_left":[0,0,0,0,0,0,0,0,0,0,0,0,0,0,0,0,0,0,0],"id":26,"left_children":[1,3,5,7,9,11,-1,13,-1,15,17,-1,-1,-1,-1,-1,-1,-1,-1],"loss_changes":[3.291305E2,3.8041364E2,1.8125978E2,2.1965994E2,1.0137598E2,4.996995E0,0E0,1.798917E1,0E0,3.8401855E1,3.4891248E-1,0E0,0E0,0E0,0E0,0E0,0E0,0E0,0E0],"parents":[2147483647,0,0,1,1,2,2,3,3,4,4,5,5,7,7,9,9,10,10],"right_children":[2,4,6,8,10,12,-1,14,-1,16,18,-1,-1,-1,-1,-1,-1,-1,-1],"split_conditions":[9E0,4.3E1,1.28E2,4.2E1,1.5E1,1.17E2,-6.498707E-1,1.2E1,-4.7110176E-1,2.2E1,1.3E1,-6.253777E-2,4.168854E-2,1.7027563E-1,-4.2014886E-2,4.1417685E-1,4.168854E-2,1.3346481E-2,-1.623497E-2],"split_indices":[35,11,1,2,7,1,0,0,0,0,0,0,0,0,0,0,0,0,0],"split_type":[0,0,0,0,0,0,0,0,0,0,0,0,0,0,0,0,0,0,0],"sum_hessian":[2.1E1,1.7E1,4E0,5E0,1.2E1,3E0,1E0,3E0,2E0,1E1,2E0,2E0,1E0,2E0,1E0,9E0,1E0,1E0,1E0],"tree_param":{"num_deleted":"0","num_feature":"41","num_nodes":"19","size_leaf_vector":"1"}},{"base_weights":[1.5540088E0,3.4185824E0,-5.4692583E0,-3.1810825E0,6.201614E0,-5.003338E-1,-6.336239E-1,2.0593529E0,-4.553984E-1,7.339421E0,-3.7549336E-2,-6.0453158E-2,4.0646363E-2,1.6459987E-1,-4.096451E-2,3.9553887E-1,4.0646363E-2,1.3012886E-2,-1.5829086E-2],"categories":[],"categories_nodes":[],"categories_segments":[],"categories_sizes":[],"default_left":[0,0,0,0,0,0,0,0,0,0,0,0,0,0,0,0,0,0,0],"id":27,"left_children":[1,3,5,7,9,11,-1,13,-1,15,17,-1,-1,-1,-1,-1,-1,-1,-1],"loss_changes":[3.0679587E2,3.5033514E2,1.726208E2,2.051133E2,9.256207E1,4.7058673E0,0E0,1.6890472E1,0E0,3.4587646E1,3.3168632E-1,0E0,0E0,0E0,0E0,0E0,0E0,0E0,0E0],"parents":[2147483647,0,0,1,1,2,2,3,3,4,4,5,5,7,7,9,9,10,10],"right_children":[2,4,6,8,10,12,-1,14,-1,16,18,-1,-1,-1,-1,-1,-1,-1,-1],"split_conditions":[9E0,4.3E1,1.28E2,4.2E1,1.5E1,1.17E2,-6.336239E-1,1.2E1,-4.553984E-1,2.2E1,1.3E1,-6.0453158E-2,4.0646363E-2,1.6459987E-1,-4.096451E-2,3.9553887E-1,4.0646363E-2,1.3012886E-2,-1.5829086E-2],"split_indices":[35,11,1,2,7,1,0,0,0,0,0,0,0,0,0,0,0,0,0],"split_type":[0,0,0,0,0,0,0,0,0,0,0,0,0,0,0,0,0,0,0],"sum_hessian":[2.1E1,1.7E1,4E0,5E0,1.2E1,3E0,1E0,3E0,2E0,1E1,2E0,2E0,1E0,2E0,1E0,9E0,1E0,1E0,1E0],"tree_param":{"num_deleted":"0","num_feature":"41","num_nodes":"19","size_leaf_vector":"1"}},{"base_weights":[1.4512256E0,-1.2013067E0,6.2433205E0,1.8276972E0,-6.9632775E-1,-3.9940454E-2,7.3634543E0,4.1972685E0,-1.6363474E0,9.9950604E-2,3.96218E-1,2.7958786E-1,9.20105E-3,-9.466095E-2,-2.336195E-1,-3.894005E-2,3.9630126E-2,3.4878414E-2,-4.2766824E-2],"categories":[],"categories_nodes":[],"categories_segments":[],"categories_sizes":[],"default_left":[0,0,0,0,0,0,0,0,0,0,0,0,0,0,0,0,0,0,0],"id":28,"left_children":[1,3,5,7,-1,-1,9,11,13,-1,-1,-1,15,17,-1,-1,-1,-1,-1],"loss_changes":[2.8714624E2,6.0362585E2,6.898703E1,1.135761E2,0E0,0E0,5.22171E0,4.6670258E1,2.7641462E1,0E0,0E0,0E0,2.4692457E0,3.6098025E0,0E0,0E0,0E0,0E0,0E0],"parents":[2147483647,0,0,1,1,2,2,3,3,6,6,7,7,8,8,12,12,13,13],"right_children":[2,4,6,8,-1,-1,10,12,14,-1,-1,-1,16,18,-1,-1,-1,-1,-1],"split_conditions":[1.824E4,1.14E3,4.4E1,1.34096E1,-6.9632775E-1,-3.9940454E-2,4.2E1,2.6209E4,1.8E1,9.9950604E-2,3.96218E-1,2.7958786E-1,6E0,1.4E1,-2.336195E-1,-3.894005E-2,3.9630126E-2,3.4878414E-2,-4.2766824E-2],"split_indices":[16,18,3,33,0,0,2,12,0,0,0,0,0,0,0,0,0,0,0],"split_type":[0,0,0,0,0,0,0,0,0,0,0,0,0,0,0,0,0,0,0],"sum_hessian":[2.1E1,1.4E1,7E0,1.2E1,2E0,1E0,6E0,7E0,5E0,1E0,5E0,5E0,2E0,4E0,1E0,1E0,1E0,2E0,2E0],"tree_param":{"num_deleted":"0","num_feature":"41","num_nodes":"19","size_leaf_vector":"1"}},{"base_weights":[1.3695134E0,-2.2657068E0,4.5876727E0,2.508208E0,-8.496046E0,5.833021E0,-2.2777902E-1,2.568553E-1,-7.477417E-1,-3.488706E-2,-6.7311686E-1,6.785259E0,5.159836E-2,1.1815453E-2,-5.7726413E-2,1.7452002E-1,3.9254773E-1],"categories":[],"categories_nodes":[],"categories_segments":[],"categories_sizes":[],"default_left":[0,0,0,0,0,0,0,0,0,0,0,0,0,0,0,0,0],"id":29,"left_children":[1,3,5,7,9,11,-1,-1,13,-1,-1,15,-1,-1,-1,-1,-1],"loss_changes":[2.6776608E2,3.4848407E2,1.6321126E2,6.3758152E1,1.8424997E2,4.3286987E1,0E0,0E0,1.8740201E0,0E0,0E0,4.198883E0,0E0,0E0,0E0,0E0,0E0],"parents":[2147483647,0,0,1,1,2,2,3,3,4,4,5,5,8,8,11,11],"right_children":[2,4,6,8,10,12,-1,-1,14,-1,-1,16,-1,-1,-1,-1,-1],"split_conditions":[1.1E2,3.9E3,4.8E1,7E0,4.1E1,3.1493769E1,-2.2777902E-1,2.568553E-1,1.3E1,-3.488706E-2,-6.7311686E-1,2.592E3,5.159836E-2,1.1815453E-2,-5.7726413E-2,1.7452002E-1,3.9254773E-1],"split_indices":[32,15,4,0,2,38,0,0,0,0,0,19,0,0,0,0,0],"split_type":[0,0,0,0,0,0,0,0,0,0,0,0,0,0,0,0,0],"sum_hessian":[2.1E1,1E1,1.1E1,6E0,4E0,1E1,1E0,3E0,3E0,2E0,2E0,8E0,2E0,1E0,2E0,3E0,5E0],"tree_param":{"num_deleted":"0","num_feature":"41","num_nodes":"17","size_leaf_vector":"1"}},{"base_weights":[1.2962109E0,2.9828753E0,-5.0350237E0,-2.8773346E0,5.4581356E0,-4.5830727E-1,-5.8354723E-1,1.829565E0,-4.0970445E-1,6.4576945E0,-2.6290894E-2,-5.5532582E-2,3.7468147E-2,1.4697024E-1,-3.7498858E-2,3.477033E-1,3.734951E-2,1.1520005E-2,-1.34918215E-2],"categories":[],"categories_nodes":[],"categories_segments":[],"categories_sizes":[],"default_left":[0,0,0,0,0,0,0,0,0,0,0,0,0,0,0,0,0,0,0],"id":30,"left_children":[1,3,5,7,9,11,-1,13,-1,15,17,-1,-1,-1,-1,-1,-1,-1,-1],"loss_changes":[2.4994957E2,2.768047E2,1.4650475E2,1.6514421E2,7.143588E1,3.9835486E0,0E0,1.3656E1,0E0,2.5986267E1,2.4971814E-1,0E0,0E0,0E0,0E0,0E0,0E0,0E0,0E0],"parents":[2147483647,0,0,1,1,2,2,3,3,4,4,5,5,7,7,9,9,10,10],"right_children":[2,4,6,8,10,12,-1,14,-1,16,18,-1,-1,-1,-1,-1,-1,-1,-1],"split_conditions":[9E0,4.3E1,1.28E2,4.2E1,1.5E1,1.17E2,-5.8354723E-1,1.2E1,-4.0970445E-1,2.2E1,1.3E1,-5.5532582E-2,3.7468147E-2,1.4697024E-1,-3.7498858E-2,3.477033E-1,3.734951E-2,1.1520005E-2,-1.34918215E-2],"split_indices":[35,11,1,2,7,1,0,0,0,0,0,0,0,0,0,0,0,0,0],"split_type":[0,0,0,0,0,0,0,0,0,0,0,0,0,0,0,0,0,0,0],"sum_hessian":[2.1E1,1.7E1,4E0,5E0,1.2E1,3E0,1E0,3E0,2E0,1E1,2E0,2E0,1E0,2E0,1E0,9E0,1E0,1E0,1E0],"tree_param":{"num_deleted":"0","num_feature":"41","num_nodes":"19","size_leaf_vector":"1"}},{"base_weights":[1.2078209E0,-2.1884565E0,4.220423E0,2.2755597E0,-8.000387E0,5.3744326E0,-2.1184197E-1,2.3418427E-1,-7.0145607E-1,-3.25737E-2,-6.341253E-1,6.2445407E0,4.863154E-2,1.1231995E-2,-5.4251738E-2,1.5995483E-1,3.61704E-1],"categories":[],"categories_nodes":[],"categories_segments":[],"categories_sizes":[],"default_left":[0,0,0,0,0,0,0,0,0,0,0,0,0,0,0,0,0],"id":31,"left_children":[1,3,5,7,9,11,-1,-1,13,-1,-1,15,-1,-1,-1,-1,-1],"loss_changes":[2.3433214E2,3.0359546E2,1.3988771E2,5.3468597E1,1.6378006E2,3.6056885E1,0E0,0E0,1.6646644E0,0E0,0E0,3.9797668E0,0E0,0E0,0E0,0E0,0E0],"parents":[2147483647,0,0,1,1,2,2,3,3,4,4,5,5,8,8,11,11],"right_children":[2,4,6,8,10,12,-1,-1,14,-1,-1,16,-1,-1,-1,-1,-1],"split_conditions":[1.1E2,3.9E3,4.8E1,7E0,4.1E1,3.1493769E1,-2.1184197E-1,2.3418427E-1,1.3E1,-3.25737E-2,-6.341253E-1,2.592E3,4.863154E-2,1.1231995E-2,-5.4251738E-2,1.5995483E-1,3.61704E-1],"split_indices":[32,15,4,0,2,38,0,0,0,0,0,19,0,0,0,0,0],"split_type":[0,0,0,0,0,0,0,0,0,0,0,0,0,0,0,0,0],"sum_hessian":[2.1E1,1E1,1.1E1,6E0,4E0,1E1,1E0,3E0,3E0,2E0,2E0,8E0,2E0,1E0,2E0,3E0,5E0],"tree_param":{"num_deleted":"0","num_feature":"41","num_nodes":"17","size_leaf_vector":"1"}},{"base_weights":[1.1421086E0,-1.1642501E0,5.3237677E0,1.4858087E0,-6.1298776E-1,-3.5205077E-2,6.2854776E0,3.494834E0,-1.4405264E0,8.541546E-2,3.3818105E-1,2.3288606E-1,4.1147866E-3,-7.6264955E-2,-2.0654583E-1,-3.4891512E-2,3.520012E-2,3.0844627E-2,-3.7200037E-2],"categories":[],"categories_nodes":[],"categories_segments":[],"categories_sizes":[],"default_left":[0,0,0,0,0,0,0,0,0,0,0,0,0,0,0,0,0,0,0],"id":32,"left_children":[1,3,5,7,-1,-1,9,11,13,-1,-1,-1,15,17,-1,-1,-1,-1,-1],"loss_changes":[2.1837514E2,4.592718E2,5.0802124E1,8.1462456E1,0E0,0E0,3.7654114E0,3.245533E1,2.1707333E1,0E0,0E0,0E0,1.965122E0,2.7731986E0,0E0,0E0,0E0,0E0,0E0],"parents":[2147483647,0,0,1,1,2,2,3,3,6,6,7,7,8,8,12,12,13,13],"right_children":[2,4,6,8,-1,-1,10,12,14,-1,-1,-1,16,18,-1,-1,-1,-1,-1],"split_conditions":[1.824E4,1.14E3,4.4E1,1.34096E1,-6.1298776E-1,-3.5205077E-2,4.2E1,2.6209E4,1.8E1,8.541546E-2,3.3818105E-1,2.3288606E-1,6E0,1.4E1,-2.0654583E-1,-3.4891512E-2,3.520012E-2,3.0844627E-2,-3.7200037E-2],"split_indices":[16,18,3,33,0,0,2,12,0,0,0,0,0,0,0,0,0,0,0],"split_type":[0,0,0,0,0,0,0,0,0,0,0,0,0,0,0,0,0,0,0],"sum_hessian":[2.1E1,1.4E1,7E0,1.2E1,2E0,1E0,6E0,7E0,5E0,1E0,5E0,5E0,2E0,4E0,1E0,1E0,1E0,2E0,2E0],"tree_param":{"num_deleted":"0","num_feature":"41","num_nodes":"19","size_leaf_vector":"1"}},{"base_weights":[1.0757161E0,2.6031756E0,-4.6382813E0,-2.5973842E0,4.8031898E0,-4.2004585E-1,-5.377806E-1,1.6282616E0,-3.682892E-1,5.6809697E0,-1.6400656E-2,-5.1032763E-2,3.4544565E-2,1.3143413E-1,-3.432503E-2,3.0558935E-1,3.4320068E-2,1.0180092E-2,-1.1410141E-2],"categories":[],"categories_nodes":[],"categories_segments":[],"categories_sizes":[],"default_left":[0,0,0,0,0,0,0,0,0,0,0,0,0,0,0,0,0,0,0],"id":33,"left_children":[1,3,5,7,9,11,-1,13,-1,15,17,-1,-1,-1,-1,-1,-1,-1,-1],"loss_changes":[2.0408804E2,2.184192E2,1.2450384E2,1.3289084E2,5.509018E1,3.374119E0,0E0,1.1067536E1,0E0,1.947406E1,1.8625353E-1,0E0,0E0,0E0,0E0,0E0,0E0,0E0,0E0],"parents":[2147483647,0,0,1,1,2,2,3,3,4,4,5,5,7,7,9,9,10,10],"right_children":[2,4,6,8,10,12,-1,14,-1,16,18,-1,-1,-1,-1,-1,-1,-1,-1],"split_conditions":[9E0,4.3E1,1.28E2,4.2E1,1.5E1,1.17E2,-5.377806E-1,1.2E1,-3.682892E-1,2.2E1,1.3E1,-5.1032763E-2,3.4544565E-2,1.3143413E-1,-3.432503E-2,3.0558935E-1,3.4320068E-2,1.0180092E-2,-1.1410141E-2],"split_indices":[35,11,1,2,7,1,0,0,0,0,0,0,0,0,0,0,0,0,0],"split_type":[0,0,0,0,0,0,0,0,0,0,0,0,0,0,0,0,0,0,0],"sum_hessian":[2.1E1,1.7E1,4E0,5E0,1.2E1,3E0,1E0,3E0,2E0,1E1,2E0,2E0,1E0,2E0,1E0,9E0,1E0,1E0,1E0],"tree_param":{"num_deleted":"0","num_feature":"41","num_nodes":"19","size_leaf_vector":"1"}},{"base_weights":[9.9980545E-1,-2.0715983E0,3.731942E0,1.9449092E0,-7.2803893E0,4.7700276E0,-1.921751E-1,2.0257722E-1,-6.4795303E-1,-2.9245505E-2,-5.774536E-1,5.5316205E0,4.476204E-2,9.925651E-3,-4.981397E-2,1.1289088E-1,3.0722237E-1],"categories":[],"categories_nodes":[],"categories_segments":[],"categories_sizes":[],"default_left":[0,0,0,0,0,0,0,0,0,0,0,0,0,0,0,0,0],"id":34,"left_children":[1,3,5,7,9,11,-1,-1,13,-1,-1,15,-1,-1,-1,-1,-1],"loss_changes":[1.9234396E2,2.4429233E2,1.1270116E2,4.0860714E1,1.3614923E2,2.7508972E1,0E0,0E0,1.3771603E0,0E0,0E0,4.1834106E0,0E0,0E0,0E0,0E0,0E0],"parents":[2147483647,0,0,1,1,2,2,3,3,4,4,5,5,8,8,11,11],"right_children":[2,4,6,8,10,12,-1,-1,14,-1,-1,16,-1,-1,-1,-1,-1],"split_conditions":[1.1E2,3.9E3,4.8E1,7E0,4.1E1,3.1493769E1,-1.921751E-1,2.0257722E-1,1.3E1,-2.9245505E-2,-5.774536E-1,1.13E2,4.476204E-2,9.925651E-3,-4.981397E-2,1.1289088E-1,3.0722237E-1],"split_indices":[32,15,4,0,2,38,0,0,0,0,0,1,0,0,0,0,0],"split_type":[0,0,0,0,0,0,0,0,0,0,0,0,0,0,0,0,0],"sum_hessian":[2.1E1,1E1,1.1E1,6E0,4E0,1E1,1E0,3E0,3E0,2E0,2E0,8E0,2E0,1E0,2E0,2E0,6E0],"tree_param":{"num_deleted":"0","num_feature":"41","num_nodes":"17","size_leaf_vector":"1"}},{"base_weights":[9.4202876E-1,-1.1406301E0,4.7292604E0,1.2602198E0,-5.582052E-1,-3.2221604E-2,5.5889926E0,3.025526E0,-1.3035583E0,7.71719E-2,3.003006E-1,2.0159149E-1,4.40979E-3,-6.530456E-2,-1.8737069E-1,-3.201237E-2,3.23431E-2,2.8159587E-2,-6.7203265E-1,-1.0393715E-2,-4.0008735E-2],"categories":[],"categories_nodes":[],"categories_segments":[],"categories_sizes":[],"default_left":[0,0,0,0,0,0,0,0,0,0,0,0,0,0,0,0,0,0,0,0,0],"id":35,"left_children":[1,3,5,7,-1,-1,9,11,13,-1,-1,-1,15,17,-1,-1,-1,-1,19,-1,-1],"loss_changes":[1.7891959E2,3.7504202E2,4.0561203E1,6.2780045E1,0E0,0E0,2.5396423E0,2.4303513E1,1.7911957E1,0E0,0E0,0E0,1.656636E0,2.285115E0,0E0,0E0,0E0,0E0,1.2098908E-2,0E0,0E0],"parents":[2147483647,0,0,1,1,2,2,3,3,6,6,7,7,8,8,12,12,13,13,18,18],"right_children":[2,4,6,8,-1,-1,10,12,14,-1,-1,-1,16,18,-1,-1,-1,-1,20,-1,-1],"split_conditions":[1.824E4,1.14E3,4.4E1,1.34096E1,-5.582052E-1,-3.2221604E-2,4.2E1,2.6209E4,1.8E1,7.71719E-2,3.003006E-1,2.0159149E-1,6E0,1.4E1,-1.8737069E-1,-3.201237E-2,3.23431E-2,2.8159587E-2,1.5E1,-1.0393715E-2,-4.0008735E-2],"split_indices":[16,18,3,33,0,0,2,12,0,0,0,0,0,0,0,0,0,0,0,0,0],"split_type":[0,0,0,0,0,0,0,0,0,0,0,0,0,0,0,0,0,0,0,0,0],"sum_hessian":[2.1E1,1.4E1,7E0,1.2E1,2E0,1E0,6E0,7E0,5E0,1E0,5E0,5E0,2E0,4E0,1E0,1E0,1E0,2E0,2E0,1E0,1E0],"tree_param":{"num_deleted":"0","num_feature":"41","num_nodes":"21","size_leaf_vector":"1"}},{"base_weights":[8.8489777E-1,2.2688913E0,-4.2744584E0,-2.362985E0,4.23215E0,-3.8362694E-1,-4.959446E-1,1.4169159E0,-3.3075956E-1,5.0058517E0,-1.5472412E-2,-4.681371E-2,3.1857874E-2,1.1540514E-1,-3.141613E-2,2.8079882E-1,7.5343065E-2,8.9735035E-3,-1.0133934E-2],"categories":[],"categories_nodes":[],"categories_segments":[],"categories_sizes":[],"default_left":[0,0,0,0,0,0,0,0,0,0,0,0,0,0,0,0,0,0,0],"id":36,"left_children":[1,3,5,7,9,11,-1,13,-1,15,17,-1,-1,-1,-1,-1,-1,-1,-1],"loss_changes":[1.667896E2,1.7368481E2,1.0600255E2,1.05810684E2,4.2800568E1,2.8530889E0,0E0,8.740994E0,0E0,1.5020508E1,1.4585811E-1,0E0,0E0,0E0,0E0,0E0,0E0,0E0,0E0],"parents":[2147483647,0,0,1,1,2,2,3,3,4,4,5,5,7,7,9,9,10,10],"right_children":[2,4,6,8,10,12,-1,14,-1,16,18,-1,-1,-1,-1,-1,-1,-1,-1],"split_conditions":[9E0,4.3E1,1.28E2,4.2E1,1.5E1,1.17E2,-4.959446E-1,1.2E1,-3.3075956E-1,3.1163641E1,1.3E1,-4.681371E-2,3.1857874E-2,1.1540514E-1,-3.141613E-2,2.8079882E-1,7.5343065E-2,8.9735035E-3,-1.0133934E-2],"split_indices":[35,11,1,2,7,1,0,0,0,38,0,0,0,0,0,0,0,0,0],"split_type":[0,0,0,0,0,0,0,0,0,0,0,0,0,0,0,0,0,0,0],"sum_hessian":[2.1E1,1.7E1,4E0,5E0,1.2E1,3E0,1E0,3E0,2E0,1E1,2E0,2E0,1E0,2E0,1E0,8E0,2E0,1E0,1E0],"tree_param":{"num_deleted":"0","num_feature":"41","num_nodes":"19","size_leaf_vector":"1"}},{"base_weights":[8.2234854E-1,-1.9619113E0,3.3060577E0,1.652153E0,-6.629219E0,4.240854E0,-1.744175E-1,1.7442322E-1,-5.971966E-1,-2.661489E-2,-5.2582E-1,4.9134326E0,4.0474955E-2,8.749199E-3,-4.5645904E-2,1.23467065E-1,2.8619608E-1],"categories":[],"categories_nodes":[],"categories_segments":[],"categories_sizes":[],"default_left":[0,0,0,0,0,0,0,0,0,0,0,0,0,0,0,0,0],"id":37,"left_children":[1,3,5,7,9,11,-1,-1,13,-1,-1,15,-1,-1,-1,-1,-1],"loss_changes":[1.586226E2,1.9649992E2,9.101022E1,3.0996843E1,1.1290138E2,2.1408997E1,0E0,0E0,1.1349219E0,0E0,0E0,3.693863E0,0E0,0E0,0E0,0E0,0E0],"parents":[2147483647,0,0,1,1,2,2,3,3,4,4,5,5,8,8,11,11],"right_children":[2,4,6,8,10,12,-1,-1,14,-1,-1,16,-1,-1,-1,-1,-1],"split_conditions":[1.1E2,3.9E3,4.8E1,7E0,4.1E1,3.1493769E1,-1.744175E-1,1.7442322E-1,1.3E1,-2.661489E-2,-5.2582E-1,2.592E3,4.0474955E-2,8.749199E-3,-4.5645904E-2,1.23467065E-1,2.8619608E-1],"split_indices":[32,15,4,0,2,38,0,0,0,0,0,19,0,0,0,0,0],"split_type":[0,0,0,0,0,0,0,0,0,0,0,0,0,0,0,0,0],"sum_hessian":[2.1E1,1E1,1.1E1,6E0,4E0,1E1,1E0,3E0,3E0,2E0,2E0,8E0,2E0,1E0,2E0,3E0,5E0],"tree_param":{"num_deleted":"0","num_feature":"41","num_nodes":"17","size_leaf_vector":"1"}},{"base_weights":[7.7490443E-1,-1.9015357E0,3.1637325E0,1.589192E0,-6.4082475E0,4.069734E0,-1.700571E-1,1.6788235E-1,-5.76561E-1,-2.5727844E-2,-5.082928E-1,4.7132807E0,3.9125826E-2,8.530426E-3,-4.412435E-2,1.1883707E-1,2.7427134E-1],"categories":[],"categories_nodes":[],"categories_segments":[],"categories_sizes":[],"default_left":[0,0,0,0,0,0,0,0,0,0,0,0,0,0,0,0,0],"id":38,"left_children":[1,3,5,7,9,11,-1,-1,13,-1,-1,15,-1,-1,-1,-1,-1],"loss_changes":[1.4667416E2,1.8323268E2,8.521518E1,2.8746143E1,1.05499985E2,1.9582031E1,0E0,0E0,1.0648739E0,0E0,0E0,3.1999054E0,0E0,0E0,0E0,0E0,0E0],"parents":[2147483647,0,0,1,1,2,2,3,3,4,4,5,5,8,8,11,11],"right_children":[2,4,6,8,10,12,-1,-1,14,-1,-1,16,-1,-1,-1,-1,-1],"split_conditions":[1.1E2,3.9E3,4.8E1,7E0,4.1E1,3.1493769E1,-1.700571E-1,1.6788235E-1,1.3E1,-2.5727844E-2,-5.082928E-1,2.592E3,3.9125826E-2,8.530426E-3,-4.412435E-2,1.1883707E-1,2.7427134E-1],"split_indices":[32,15,4,0,2,38,0,0,0,0,0,19,0,0,0,0,0],"split_type":[0,0,0,0,0,0,0,0,0,0,0,0,0,0,0,0,0],"sum_hessian":[2.1E1,1E1,1.1E1,6E0,4E0,1E1,1E0,3E0,3E0,2E0,2E0,8E0,2E0,1E0,2E0,3E0,5E0],"tree_param":{"num_deleted":"0","num_feature":"41","num_nodes":"17","size_leaf_vector":"1"}},{"base_weights":[7.298161E-1,1.9874399E0,-3.9435928E0,-2.1220055E0,3.731227E0,-3.5255814E-1,-4.576933E-1,1.2683601E0,-2.967579E-1,4.410559E0,-3.4001668E-3,-4.2884827E-2,2.9071426E-2,1.0348167E-1,-2.8386498E-2,2.3704854E-1,2.7661134E-2,8.317185E-3,-8.5721975E-3],"categories":[],"categories_nodes":[],"categories_segments":[],"categories_sizes":[],"default_left":[0,0,0,0,0,0,0,0,0,0,0,0,0,0,0,0,0,0,0],"id":39,"left_children":[1,3,5,7,9,11,-1,13,-1,15,17,-1,-1,-1,-1,-1,-1,-1,-1],"loss_changes":[1.3714024E2,1.3690565E2,9.032408E1,8.50958E1,3.299666E1,2.385859E0,0E0,7.0598326E0,0E0,1.1396774E1,1.1409181E-1,0E0,0E0,0E0,0E0,0E0,0E0,0E0,0E0],"parents":[2147483647,0,0,1,1,2,2,3,3,4,4,5,5,7,7,9,9,10,10],"right_children":[2,4,6,8,10,12,-1,14,-1,16,18,-1,-1,-1,-1,-1,-1,-1,-1],"split_conditions":[9E0,4.3E1,1.28E2,4.2E1,1.5E1,1.17E2,-4.576933E-1,1.2E1,-2.967579E-1,2.2E1,1.3E1,-4.2884827E-2,2.9071426E-2,1.0348167E-1,-2.8386498E-2,2.3704854E-1,2.7661134E-2,8.317185E-3,-8.5721975E-3],"split_indices":[35,11,1,2,7,1,0,0,0,0,0,0,0,0,0,0,0,0,0],"split_type":[0,0,0,0,0,0,0,0,0,0,0,0,0,0,0,0,0,0,0],"sum_hessian":[2.1E1,1.7E1,4E0,5E0,1.2E1,3E0,1E0,3E0,2E0,1E1,2E0,2E0,1E0,2E0,1E0,9E0,1E0,1E0,1E0],"tree_param":{"num_deleted":"0","num_feature":"41","num_nodes":"19","size_leaf_vector":"1"}},{"base_weights":[1.2158987E1,1.5136782E1,-7.775579E0,1.6554092E1,3.4770737E0,-4.886816E-1,-9.448681E-2,2.1271305E-1,1.7172981E1,2.210104E-1,3.9770126E-2,5.608274E-1,1.0338067E0],"categories":[],"categories_nodes":[],"categories_segments":[],"categories_sizes":[],"default_left":[0,0,0,0,0,0,0,0,0,0,0,0,0],"id":40,"left_children":[1,3,5,7,9,-1,-1,-1,11,-1,-1,-1,-1],"loss_changes":[1.1861958E3,2.0684692E2,1.681108E1,3.351294E1,4.071686E0,0E0,0E0,0E0,3.9347168E1,0E0,0E0,0E0,0E0],"parents":[2147483647,0,0,1,1,2,2,3,3,4,4,8,8],"right_children":[2,4,6,8,10,-1,-1,-1,12,-1,-1,-1,-1],"split_conditions":[1.6E2,3.357E3,7E0,2.1531205E0,8E0,-4.886816E-1,-9.448681E-2,2.1271305E-1,6E0,2.210104E-1,3.9770126E-2,5.608274E-1,1.0338067E0],"split_indices":[1,19,0,34,0,0,0,0,0,0,0,0,0],"split_type":[0,0,0,0,0,0,0,0,0,0,0,0,0],"sum_hessian":[1.7E1,1.5E1,2E0,1.3E1,2E0,1E0,1E0,1E0,1.2E1,1E0,1E0,6E0,6E0],"tree_param":{"num_deleted":"0","num_feature":"41","num_nodes":"13","size_leaf_vector":"1"}},{"base_weights":[1.1633535E1,1.45092E1,-7.5811896E0,1.5855483E1,3.390147E0,-4.7646466E-1,-9.212456E-2,2.067484E-1,1.6438986E1,2.154852E-1,3.8775828E-2,2.0739527E-1,8.5587925E-1],"categories":[],"categories_nodes":[],"categories_segments":[],"categories_sizes":[],"default_left":[0,0,0,0,0,0,0,0,0,0,0,0,0],"id":41,"left_children":[1,3,5,7,9,-1,-1,-1,11,-1,-1,-1,-1],"loss_changes":[1.1045889E3,1.8575781E2,1.598111E1,2.7770752E1,3.870655E0,0E0,0E0,0E0,3.7427002E1,0E0,0E0,0E0,0E0],"parents":[2147483647,0,0,1,1,2,2,3,3,4,4,8,8],"right_children":[2,4,6,8,10,-1,-1,-1,12,-1,-1,-1,-1],"split_conditions":[1.6E2,3.357E3,7E0,4.6E1,8E0,-4.7646466E-1,-9.212456E-2,2.067484E-1,2.1531205E0,2.154852E-1,3.8775828E-2,2.0739527E-1,8.5587925E-1],"split_indices":[1,19,0,2,0,0,0,0,34,0,0,0,0],"split_type":[0,0,0,0,0,0,0,0,0,0,0,0,0],"sum_hessian":[1.7E1,1.5E1,2E0,1.3E1,2E0,1E0,1E0,1E0,1.2E1,1E0,1E0,1E0,1.1E1],"tree_param":{"num_deleted":"0","num_feature":"41","num_nodes":"13","size_leaf_vector":"1"}},{"base_weights":[1.1104952E1,1.3879007E1,-7.39166E0,1.5153423E1,3.3053944E0,-4.645531E-1,-8.9821436E-2,2.0157968E-1,1.5698826E1,2.1009807E-1,3.780651E-2,3.868188E-1,1.7313923E1,2.511738E-1,9.0606827E-1],"categories":[],"categories_nodes":[],"categories_segments":[],"categories_sizes":[],"default_left":[0,0,0,0,0,0,0,0,0,0,0,0,0,0,0],"id":42,"left_children":[1,3,5,7,9,-1,-1,-1,11,-1,-1,-1,13,-1,-1],"loss_changes":[1.0261802E3,1.655149E2,1.5192047E1,2.1631104E1,3.679531E0,0E0,0E0,0E0,3.323462E1,0E0,0E0,0E0,8.206055E0,0E0,0E0],"parents":[2147483647,0,0,1,1,2,2,3,3,4,4,8,8,12,12],"right_children":[2,4,6,8,10,-1,-1,-1,12,-1,-1,-1,14,-1,-1],"split_conditions":[1.6E2,3.357E3,7E0,4.6E1,8E0,-4.645531E-1,-8.9821436E-2,2.0157968E-1,2.3E1,2.1009807E-1,3.780651E-2,3.868188E-1,2.56E3,2.511738E-1,9.0606827E-1],"split_indices":[1,19,0,2,0,0,0,0,6,0,0,0,19,0,0],"split_type":[0,0,0,0,0,0,0,0,0,0,0,0,0,0,0],"sum_hessian":[1.7E1,1.5E1,2E0,1.3E1,2E0,1E0,1E0,1E0,1.2E1,1E0,1E0,3E0,9E0,1E0,8E0],"tree_param":{"num_deleted":"0","num_feature":"41","num_nodes":"15","size_leaf_vector":"1"}},{"base_weights":[1.0629659E1,1.3309654E1,-7.2068686E0,1.4520442E1,3.2227604E0,-4.5293924E-1,-8.757591E-2,1.9253998E-1,1.5044969E1,2.0484562E-1,3.686142E-2,4.8304415E-1,9.139886E-1],"categories":[],"categories_nodes":[],"categories_segments":[],"categories_sizes":[],"default_left":[0,0,0,0,0,0,0,0,0,0,0,0,0],"id":43,"left_children":[1,3,5,7,9,-1,-1,-1,11,-1,-1,-1,-1],"loss_changes":[9.563534E2,1.4861328E2,1.4441925E1,2.0416016E1,3.497839E0,0E0,0E0,0E0,4.9815186E1,0E0,0E0,0E0,0E0],"parents":[2147483647,0,0,1,1,2,2,3,3,4,4,8,8],"right_children":[2,4,6,8,10,-1,-1,-1,12,-1,-1,-1,-1],"split_conditions":[1.6E2,3.357E3,7E0,2.1531205E0,8E0,-4.5293924E-1,-8.757591E-2,1.9253998E-1,6E0,2.0484562E-1,3.686142E-2,4.8304415E-1,9.139886E-1],"split_indices":[1,19,0,34,0,0,0,0,0,0,0,0,0],"split_type":[0,0,0,0,0,0,0,0,0,0,0,0,0],"sum_hessian":[1.7E1,1.5E1,2E0,1.3E1,2E0,1E0,1E0,1E0,1.2E1,1E0,1E0,6E0,6E0],"tree_param":{"num_deleted":"0","num_feature":"41","num_nodes":"13","size_leaf_vector":"1"}},{"base_weights":[1.0169885E1,1.2758626E1,-7.0266953E0,3.593979E-2,1.3513361E1,-4.4161567E-1,-8.538647E-2,1.5892778E1,4.2618155E-1,3.210654E-1,8.8407916E-1],"categories":[],"categories_nodes":[],"categories_segments":[],"categories_sizes":[],"default_left":[0,0,0,0,0,0,0,0,0,0,0],"id":44,"left_children":[1,3,5,-1,7,-1,-1,9,-1,-1,-1],"loss_changes":[8.909658E2,1.35677E2,1.3728867E1,0E0,4.262549E1,0E0,0E0,3.8944336E1,0E0,0E0,0E0],"parents":[2147483647,0,0,1,1,2,2,4,4,7,7],"right_children":[2,4,6,-1,8,-1,-1,10,-1,-1,-1],"split_conditions":[1.6E2,1.7E1,7E0,3.593979E-2,8E0,-4.4161567E-1,-8.538647E-2,3.844E3,4.2618155E-1,3.210654E-1,8.8407916E-1],"split_indices":[1,9,0,0,5,0,0,21,0,0,0],"split_type":[0,0,0,0,0,0,0,0,0,0,0],"sum_hessian":[1.7E1,1.5E1,2E0,1E0,1.4E1,1E0,1E0,8E0,6E0,2E0,6E0],"tree_param":{"num_deleted":"0","num_feature":"41","num_nodes":"11","size_leaf_vector":"1"}},{"base_weights":[9.724739E0,1.2224899E1,-6.8510284E0,3.504124E-2,1.2946449E1,-4.3057537E-1,-8.325177E-2,1.5232044E1,4.0791675E-1,3.1036314E-1,8.461901E-1],"categories":[],"categories_nodes":[],"categories_segments":[],"categories_sizes":[],"default_left":[0,0,0,0,0,0,0,0,0,0,0],"id":45,"left_children":[1,3,5,-1,7,-1,-1,9,-1,-1,-1],"loss_changes":[8.297106E2,1.23970215E2,1.3051025E1,0E0,3.9886963E1,0E0,0E0,3.235913E1,0E0,0E0,0E0],"parents":[2147483647,0,0,1,1,2,2,4,4,7,7],"right_children":[2,4,6,-1,8,-1,-1,10,-1,-1,-1],"split_conditions":[1.6E2,1.7E1,7E0,3.504124E-2,8E0,-4.3057537E-1,-8.325177E-2,3.844E3,4.0791675E-1,3.1036314E-1,8.461901E-1],"split_indices":[1,9,0,0,5,0,0,21,0,0,0],"split_type":[0,0,0,0,0,0,0,0,0,0,0],"sum_hessian":[1.7E1,1.5E1,2E0,1E0,1.4E1,1E0,1E0,8E0,6E0,2E0,6E0],"tree_param":{"num_deleted":"0","num_feature":"41","num_nodes":"11","size_leaf_vector":"1"}},{"base_weights":[9.298819E0,1.1713625E1,-6.679754E0,1.2778321E1,2.8404973E0,-4.1981107E-1,-8.117046E-2,1.636118E-1,1.3257849E1,1.7887211E-1,3.4165192E-2,1.6687413E-1,1.3806422E1,3.0001768E-1,7.3838E-1],"categories":[],"categories_nodes":[],"categories_segments":[],"categories_sizes":[],"default_left":[0,0,0,0,0,0,0,0,0,0,0,0,0,0,0],"id":46,"left_children":[1,3,5,7,9,-1,-1,-1,11,-1,-1,-1,13,-1,-1],"loss_changes":[7.727771E2,1.14858154E2,1.2406647E1,2.0435303E1,2.3247166E0,0E0,0E0,0E0,2.4667969E1,0E0,0E0,0E0,1.425293E0,0E0,0E0],"parents":[2147483647,0,0,1,1,2,2,3,3,4,4,8,8,12,12],"right_children":[2,4,6,8,10,-1,-1,-1,12,-1,-1,-1,14,-1,-1],"split_conditions":[1.6E2,3.357E3,7E0,4.6E1,8E0,-4.1981107E-1,-8.117046E-2,1.636118E-1,2.1531205E0,1.7887211E-1,3.4165192E-2,1.6687413E-1,3.844E3,3.0001768E-1,7.3838E-1],"split_indices":[1,19,0,2,0,0,0,0,34,0,0,0,21,0,0],"split_type":[0,0,0,0,0,0,0,0,0,0,0,0,0,0,0],"sum_hessian":[1.7E1,1.5E1,2E0,1.3E1,2E0,1E0,1E0,1E0,1.2E1,1E0,1E0,1E0,1.1E1,2E0,9E0],"tree_param":{"num_deleted":"0","num_feature":"41","num_nodes":"15","size_leaf_vector":"1"}},{"base_weights":[8.893929E0,1.1226812E1,-6.5127616E0,3.331108E-2,1.1886437E1,-4.0931588E-1,-7.914124E-2,1.4040022E1,3.7097403E-1,2.9001707E-1,7.7827984E-1],"categories":[],"categories_nodes":[],"categories_segments":[],"categories_sizes":[],"default_left":[0,0,0,0,0,0,0,0,0,0,0],"id":47,"left_children":[1,3,5,-1,7,-1,-1,9,-1,-1,-1],"loss_changes":[7.20074E2,1.03537476E2,1.179406E1,0E0,4.0129883E1,0E0,0E0,2.2846436E1,0E0,0E0,0E0],"parents":[2147483647,0,0,1,1,2,2,4,4,7,7],"right_children":[2,4,6,-1,8,-1,-1,10,-1,-1,-1],"split_conditions":[1.6E2,1.7E1,7E0,3.331108E-2,8E0,-4.0931588E-1,-7.914124E-2,3.844E3,3.7097403E-1,2.9001707E-1,7.7827984E-1],"split_indices":[1,9,0,0,5,0,0,21,0,0,0],"split_type":[0,0,0,0,0,0,0,0,0,0,0],"sum_hessian":[1.7E1,1.5E1,2E0,1E0,1.4E1,1E0,1E0,8E0,6E0,2E0,6E0],"tree_param":{"num_deleted":"0","num_feature":"41","num_nodes":"11","size_leaf_vector":"1"}},{"base_weights":[8.503906E0,1.0757509E1,-6.3499427E0,6.8540716E0,1.3804187E1,-3.9908296E-1,-7.716274E-2,3.7742195E-1,3.2478333E-2,1.5342788E-1,7.4497414E-1],"categories":[],"categories_nodes":[],"categories_segments":[],"categories_sizes":[],"default_left":[0,0,0,0,0,0,0,0,0,0,0],"id":48,"left_children":[1,3,5,7,9,-1,-1,-1,-1,-1,-1],"loss_changes":[6.708535E2,9.5665405E1,1.1211723E1,3.3870636E1,4.834961E1,0E0,0E0,0E0,0E0,0E0,0E0],"parents":[2147483647,0,0,1,1,2,2,3,3,4,4],"right_children":[2,4,6,8,10,-1,-1,-1,-1,-1,-1],"split_conditions":[1.6E2,9E0,7E0,8E0,2.3E1,-3.9908296E-1,-7.716274E-2,3.7742195E-1,3.2478333E-2,1.5342788E-1,7.4497414E-1],"split_indices":[1,0,0,0,6,0,0,0,0,0,0],"split_type":[0,0,0,0,0,0,0,0,0,0,0],"sum_hessian":[1.7E1,1.5E1,2E0,8E0,7E0,1E0,1E0,7E0,1E0,1E0,6E0],"tree_param":{"num_deleted":"0","num_feature":"41","num_nodes":"11","size_leaf_vector":"1"}},{"base_weights":[8.124938E0,1.0301405E1,-6.191194E0,1.1237728E1,2.4980927E0,-3.891059E-1,-7.523365E-2,1.4081173E-1,1.1668901E1,1.5569058E-1,3.1666376E-2,1.495922E-1,1.214267E1,3.8237908E-1,7.130467E-1],"categories":[],"categories_nodes":[],"categories_segments":[],"categories_sizes":[],"default_left":[0,0,0,0,0,0,0,0,0,0,0,0,0,0,0],"id":49,"left_children":[1,3,5,7,9,-1,-1,-1,11,-1,-1,-1,13,-1,-1],"loss_changes":[6.2463245E2,8.8829956E1,1.0658157E1,1.7973389E1,1.4724503E0,0E0,0E0,0E0,1.7112793E1,0E0,0E0,0E0,5.199829E0,0E0,0E0],"parents":[2147483647,0,0,1,1,2,2,3,3,4,4,8,8,12,12],"right_children":[2,4,6,8,10,-1,-1,-1,12,-1,-1,-1,14,-1,-1],"split_conditions":[1.6E2,3.357E3,7E0,4.6E1,8E0,-3.891059E-1,-7.523365E-2,1.4081173E-1,2.1531205E0,1.5569058E-1,3.1666376E-2,1.495922E-1,5E0,3.8237908E-1,7.130467E-1],"split_indices":[1,19,0,2,0,0,0,0,34,0,0,0,0,0,0],"split_type":[0,0,0,0,0,0,0,0,0,0,0,0,0,0,0],"sum_hessian":[1.7E1,1.5E1,2E0,1.3E1,2E0,1E0,1E0,1E0,1.2E1,1E0,1E0,1E0,1.1E1,5E0,6E0],"tree_param":{"num_deleted":"0","num_feature":"41","num_nodes":"15","size_leaf_vector":"1"}},{"base_weights":[7.780296E0,9.884661E0,-6.0364137E0,1.0774832E1,2.4356384E0,-3.7937823E-1,-7.335281E-2,1.3729154E-1,1.118123E1,1.5179825E-1,3.0874634E-2,1.4585248E-1,1.1626824E1,3.664467E-1,6.824878E-1],"categories":[],"categories_nodes":[],"categories_segments":[],"categories_sizes":[],"default_left":[0,0,0,0,0,0,0,0,0,0,0,0,0,0,0],"id":50,"left_children":[1,3,5,7,9,-1,-1,-1,11,-1,-1,-1,13,-1,-1],"loss_changes":[5.830249E2,7.9851074E1,1.0131897E1,1.4979736E1,1.3997574E0,0E0,0E0,0E0,1.3956055E1,0E0,0E0,0E0,4.2939453E0,0E0,0E0],"parents":[2147483647,0,0,1,1,2,2,3,3,4,4,8,8,12,12],"right_children":[2,4,6,8,10,-1,-1,-1,12,-1,-1,-1,14,-1,-1],"split_conditions":[1.6E2,3.357E3,7E0,4.6E1,8E0,-3.7937823E-1,-7.335281E-2,1.3729154E-1,2.1531205E0,1.5179825E-1,3.0874634E-2,1.4585248E-1,5E0,3.664467E-1,6.824878E-1],"split_indices":[1,19,0,2,0,0,0,0,34,0,0,0,0,0,0],"split_type":[0,0,0,0,0,0,0,0,0,0,0,0,0,0,0],"sum_hessian":[1.7E1,1.5E1,2E0,1.3E1,2E0,1E0,1E0,1E0,1.2E1,1E0,1E0,1E0,1.1E1,5E0,6E0],"tree_param":{"num_deleted":"0","num_feature":"41","num_nodes":"15","size_leaf_vector":"1"}},{"base_weights":[7.450282E0,9.4851E0,-5.8855042E0,3.010273E-2,1.0037166E1,-3.6989376E-1,-7.151909E-2,1.1892137E1,3.109161E-1,2.4280842E-1,6.604337E-1],"categories":[],"categories_nodes":[],"categories_segments":[],"categories_sizes":[],"default_left":[0,0,0,0,0,0,0,0,0,0,0],"id":51,"left_children":[1,3,5,-1,7,-1,-1,9,-1,-1,-1],"loss_changes":[5.4427057E2,7.242151E1,9.631607E0,0E0,3.230847E1,0E0,0E0,1.9224487E1,0E0,0E0,0E0],"parents":[2147483647,0,0,1,1,2,2,4,4,7,7],"right_children":[2,4,6,-1,8,-1,-1,10,-1,-1,-1],"split_conditions":[1.6E2,1.7E1,7E0,3.010273E-2,8E0,-3.6989376E-1,-7.151909E-2,3.844E3,3.109161E-1,2.4280842E-1,6.604337E-1],"split_indices":[1,9,0,0,5,0,0,21,0,0,0],"split_type":[0,0,0,0,0,0,0,0,0,0,0],"sum_hessian":[1.7E1,1.5E1,2E0,1E0,1.4E1,1E0,1E0,8E0,6E0,2E0,6E0],"tree_param":{"num_deleted":"0","num_feature":"41","num_nodes":"11","size_leaf_vector":"1"}},{"base_weights":[7.1223726E0,9.0886135E0,-5.7383676E0,5.80002E0,1.1652204E1,-3.6064646E-1,-6.973114E-2,3.189136E-1,2.935009E-2,1.3443337E-1,6.274307E-1],"categories":[],"categories_nodes":[],"categories_segments":[],"categories_sizes":[],"default_left":[0,0,0,0,0,0,0,0,0,0,0],"id":52,"left_children":[1,3,5,7,9,-1,-1,-1,-1,-1,-1],"loss_changes":[5.0732544E2,6.730664E1,9.156036E0,2.3385895E1,3.0540894E1,0E0,0E0,0E0,0E0,0E0,0E0],"parents":[2147483647,0,0,1,1,2,2,3,3,4,4],"right_children":[2,4,6,8,10,-1,-1,-1,-1,-1,-1],"split_conditions":[1.6E2,9E0,7E0,8E0,2.3E1,-3.6064646E-1,-6.973114E-2,3.189136E-1,2.935009E-2,1.3443337E-1,6.274307E-1],"split_indices":[1,0,0,0,6,0,0,0,0,0,0],"split_type":[0,0,0,0,0,0,0,0,0,0,0],"sum_hessian":[1.7E1,1.5E1,2E0,8E0,7E0,1E0,1E0,7E0,1E0,1E0,6E0],"tree_param":{"num_deleted":"0","num_feature":"41","num_nodes":"11","size_leaf_vector":"1"}},{"base_weights":[6.804016E0,8.703564E0,-5.594908E0,5.5487127E0,1.11648245E1,-3.516303E-1,-6.798782E-2,3.0496103E-1,2.8616333E-2,1.3107263E-1,6.0054064E-1],"categories":[],"categories_nodes":[],"categories_segments":[],"categories_sizes":[],"default_left":[0,0,0,0,0,0,0,0,0,0,0],"id":53,"left_children":[1,3,5,7,9,-1,-1,-1,-1,-1,-1],"loss_changes":[4.7263776E2,6.2288086E1,8.7039795E0,2.11651E1,2.633496E1,0E0,0E0,0E0,0E0,0E0,0E0],"parents":[2147483647,0,0,1,1,2,2,3,3,4,4],"right_children":[2,4,6,8,10,-1,-1,-1,-1,-1,-1],"split_conditions":[1.6E2,9E0,7E0,8E0,2.3E1,-3.516303E-1,-6.798782E-2,3.0496103E-1,2.8616333E-2,1.3107263E-1,6.0054064E-1],"split_indices":[1,0,0,0,6,0,0,0,0,0,0],"split_type":[0,0,0,0,0,0,0,0,0,0,0],"sum_hessian":[1.7E1,1.5E1,2E0,8E0,7E0,1E0,1E0,7E0,1E0,1E0,6E0],"tree_param":{"num_deleted":"0","num_feature":"41","num_nodes":"11","size_leaf_vector":"1"}},{"base_weights":[6.4996796E0,8.334959E0,-5.455036E0,5.30834E0,1.0698035E1,-3.4283954E-1,-6.628819E-2,2.916189E-1,2.7900888E-2,1.277958E-1,5.7480323E-1],"categories":[],"categories_nodes":[],"categories_segments":[],"categories_sizes":[],"default_left":[0,0,0,0,0,0,0,0,0,0,0],"id":54,"left_children":[1,3,5,7,9,-1,-1,-1,-1,-1,-1],"loss_changes":[4.4039185E2,5.7645264E1,8.274193E0,1.9149582E1,2.2598267E1,0E0,0E0,0E0,0E0,0E0,0E0],"parents":[2147483647,0,0,1,1,2,2,3,3,4,4],"right_children":[2,4,6,8,10,-1,-1,-1,-1,-1,-1],"split_conditions":[1.6E2,9E0,7E0,8E0,2.3E1,-3.4283954E-1,-6.628819E-2,2.916189E-1,2.7900888E-2,1.277958E-1,5.7480323E-1],"split_indices":[1,0,0,0,6,0,0,0,0,0,0],"split_type":[0,0,0,0,0,0,0,0,0,0,0],"sum_hessian":[1.7E1,1.5E1,2E0,8E0,7E0,1E0,1E0,7E0,1E0,1E0,6E0],"tree_param":{"num_deleted":"0","num_feature":"41","num_nodes":"11","size_leaf_vector":"1"}},{"base_weights":[6.2087502E0,7.982093E0,-5.3186593E0,8.709402E0,1.9272867E0,-3.3426857E-1,-6.463089E-2,1.0091183E1,2.592582E-1,1.1734314E-1,2.720337E-2,2.0419835E-1,5.612053E-1],"categories":[],"categories_nodes":[],"categories_segments":[],"categories_sizes":[],"default_left":[0,0,0,0,0,0,0,0,0,0,0,0,0],"id":55,"left_children":[1,3,5,7,9,-1,-1,11,-1,-1,-1,-1,-1],"loss_changes":[4.1041083E2,5.367395E1,7.8656845E0,1.5851685E1,4.6424484E-1,0E0,0E0,1.5412537E1,0E0,0E0,0E0,0E0,0E0],"parents":[2147483647,0,0,1,1,2,2,3,3,4,4,7,7],"right_children":[2,4,6,8,10,-1,-1,12,-1,-1,-1,-1,-1],"split_conditions":[1.6E2,3.357E3,7E0,8E0,8E0,-3.3426857E-1,-6.463089E-2,3.844E3,2.592582E-1,1.1734314E-1,2.720337E-2,2.0419835E-1,5.612053E-1],"split_indices":[1,19,0,5,0,0,0,21,0,0,0,0,0],"split_type":[0,0,0,0,0,0,0,0,0,0,0,0,0],"sum_hessian":[1.7E1,1.5E1,2E0,1.3E1,2E0,1E0,1E0,8E0,5E0,1E0,1E0,2E0,6E0],"tree_param":{"num_deleted":"0","num_feature":"41","num_nodes":"13","size_leaf_vector":"1"}},{"base_weights":[5.941109E0,7.6560655E0,-5.185694E0,4.868213E0,9.835391E0,-3.259119E-1,-6.301518E-2,2.672062E-1,2.6523208E-2,1.1811962E-1,5.282739E-1],"categories":[],"categories_nodes":[],"categories_segments":[],"categories_sizes":[],"default_left":[0,0,0,0,0,0,0,0,0,0,0],"id":56,"left_children":[1,3,5,7,9,-1,-1,-1,-1,-1,-1],"loss_changes":[3.831776E2,4.9329407E1,7.4773026E0,1.5744568E1,1.8687683E1,0E0,0E0,0E0,0E0,0E0,0E0],"parents":[2147483647,0,0,1,1,2,2,3,3,4,4],"right_children":[2,4,6,8,10,-1,-1,-1,-1,-1,-1],"split_conditions":[1.6E2,9E0,7E0,8E0,2.3E1,-3.259119E-1,-6.301518E-2,2.672062E-1,2.6523208E-2,1.1811962E-1,5.282739E-1],"split_indices":[1,0,0,0,6,0,0,0,0,0,0],"split_type":[0,0,0,0,0,0,0,0,0,0,0],"sum_hessian":[1.7E1,1.5E1,2E0,8E0,7E0,1E0,1E0,7E0,1E0,1E0,6E0],"tree_param":{"num_deleted":"0","num_feature":"41","num_nodes":"11","size_leaf_vector":"1"}},{"base_weights":[5.674677E0,7.3320208E0,-5.056051E0,4.657441E0,9.42442E0,-3.177641E-1,-6.1439704E-2,2.5551602E-1,2.5860215E-2,1.15166664E-1,5.0563353E-1],"categories":[],"categories_nodes":[],"categories_segments":[],"categories_sizes":[],"default_left":[0,0,0,0,0,0,0,0,0,0,0],"id":57,"left_children":[1,3,5,7,9,-1,-1,-1,-1,-1,-1],"loss_changes":[3.571922E2,4.5646973E1,7.108139E0,1.4232162E1,1.5915894E1,0E0,0E0,0E0,0E0,0E0,0E0],"parents":[2147483647,0,0,1,1,2,2,3,3,4,4],"right_children":[2,4,6,8,10,-1,-1,-1,-1,-1,-1],"split_conditions":[1.6E2,9E0,7E0,8E0,2.3E1,-3.177641E-1,-6.1439704E-2,2.5551602E-1,2.5860215E-2,1.15166664E-1,5.0563353E-1],"split_indices":[1,0,0,0,6,0,0,0,0,0,0],"split_type":[0,0,0,0,0,0,0,0,0,0,0],"sum_hessian":[1.7E1,1.5E1,2E0,8E0,7E0,1E0,1E0,7E0,1E0,1E0,6E0],"tree_param":{"num_deleted":"0","num_feature":"41","num_nodes":"11","size_leaf_vector":"1"}},{"base_weights":[5.4199977E0,7.0218067E0,-4.9296494E0,4.4558325E0,9.030802E0,-3.0982E-1,-5.990372E-2,2.4433719E-1,2.5213623E-2,1.1228752E-1,4.839637E-1],"categories":[],"categories_nodes":[],"categories_segments":[],"categories_sizes":[],"default_left":[0,0,0,0,0,0,0,0,0,0,0],"id":58,"left_children":[1,3,5,7,9,-1,-1,-1,-1,-1,-1],"loss_changes":[3.330219E2,4.2240723E1,6.7571793E0,1.2860672E1,1.3462097E1,0E0,0E0,0E0,0E0,0E0,0E0],"parents":[2147483647,0,0,1,1,2,2,3,3,4,4],"right_children":[2,4,6,8,10,-1,-1,-1,-1,-1,-1],"split_conditions":[1.6E2,9E0,7E0,8E0,2.3E1,-3.0982E-1,-5.990372E-2,2.4433719E-1,2.5213623E-2,1.1228752E-1,4.839637E-1],"split_indices":[1,0,0,0,6,0,0,0,0,0,0],"split_type":[0,0,0,0,0,0,0,0,0,0,0],"sum_hessian":[1.7E1,1.5E1,2E0,8E0,7E0,1E0,1E0,7E0,1E0,1E0,6E0],"tree_param":{"num_deleted":"0","num_feature":"41","num_nodes":"11","size_leaf_vector":"1"}},{"base_weights":[5.176557E0,6.7248282E0,-4.806408E0,4.2629895E0,8.653793E0,-3.0207452E-1,-5.8406066E-2,2.3364735E-1,2.4583245E-2,1.09480284E-1,4.632224E-1],"categories":[],"categories_nodes":[],"categories_segments":[],"categories_sizes":[],"default_left":[0,0,0,0,0,0,0,0,0,0,0],"id":59,"left_children":[1,3,5,7,9,-1,-1,-1,-1,-1,-1],"loss_changes":[3.1053638E2,3.9089783E1,6.4235535E0,1.1617233E1,1.129364E1,0E0,0E0,0E0,0E0,0E0,0E0],"parents":[2147483647,0,0,1,1,2,2,3,3,4,4],"right_children":[2,4,6,8,10,-1,-1,-1,-1,-1,-1],"split_conditions":[1.6E2,9E0,7E0,8E0,2.3E1,-3.0207452E-1,-5.8406066E-2,2.3364735E-1,2.4583245E-2,1.09480284E-1,4.632224E-1],"split_indices":[1,0,0,0,6,0,0,0,0,0,0],"split_type":[0,0,0,0,0,0,0,0,0,0,0],"sum_hessian":[1.7E1,1.5E1,2E0,8E0,7E0,1E0,1E0,7E0,1E0,1E0,6E0],"tree_param":{"num_deleted":"0","num_feature":"41","num_nodes":"11","size_leaf_vector":"1"}},{"base_weights":[-1.0882544E1],"categories":[],"categories_nodes":[],"categories_segments":[],"categories_sizes":[],"default_left":[0],"id":60,"left_children":[-1],"loss_changes":[0E0],"parents":[2147483647],"right_children":[-1],"split_conditions":[-5.4412717E-1],"split_indices":[0],"split_type":[0],"sum_hessian":[3E0],"tree_param":{"num_deleted":"0","num_feature":"41","num_nodes":"1","size_leaf_vector":"1"}},{"base_weights":[-1.0474447E1],"categories":[],"categories_nodes":[],"categories_segments":[],"categories_sizes":[],"default_left":[0],"id":61,"left_children":[-1],"loss_changes":[0E0],"parents":[2147483647],"right_children":[-1],"split_conditions":[-5.2372235E-1],"split_indices":[0],"split_type":[0],"sum_hessian":[3E0],"tree_param":{"num_deleted":"0","num_feature":"41","num_nodes":"1","size_leaf_vector":"1"}},{"base_weights":[-1.0081657E1],"categories":[],"categories_nodes":[],"categories_segments":[],"categories_sizes":[],"default_left":[0],"id":62,"left_children":[-1],"loss_changes":[0E0],"parents":[2147483647],"right_children":[-1],"split_conditions":[-5.0408286E-1],"split_indices":[0],"split_type":[0],"sum_hessian":[3E0],"tree_param":{"num_deleted":"0","num_feature":"41","num_nodes":"1","size_leaf_vector":"1"}},{"base_weights":[-9.703596E0],"categories":[],"categories_nodes":[],"categories_segments":[],"categories_sizes":[],"default_left":[0],"id":63,"left_children":[-1],"loss_changes":[0E0],"parents":[2147483647],"right_children":[-1],"split_conditions":[-4.851798E-1],"split_indices":[0],"split_type":[0],"sum_hessian":[3E0],"tree_param":{"num_deleted":"0","num_feature":"41","num_nodes":"1","size_leaf_vector":"1"}},{"base_weights":[-9.339714E0],"categories":[],"categories_nodes":[],"categories_segments":[],"categories_sizes":[],"default_left":[0],"id":64,"left_children":[-1],"loss_changes":[0E0],"parents":[2147483647],"right_children":[-1],"split_conditions":[-4.669857E-1],"split_indices":[0],"split_type":[0],"sum_hessian":[3E0],"tree_param":{"num_deleted":"0","num_feature":"41","num_nodes":"1","size_leaf_vector":"1"}},{"base_weights":[-8.989473E0],"categories":[],"categories_nodes":[],"categories_segments":[],"categories_sizes":[],"default_left":[0],"id":65,"left_children":[-1],"loss_changes":[0E0],"parents":[2147483647],"right_children":[-1],"split_conditions":[-4.4947368E-1],"split_indices":[0],"split_type":[0],"sum_hessian":[3E0],"tree_param":{"num_deleted":"0","num_feature":"41","num_nodes":"1","size_leaf_vector":"1"}},{"base_weights":[-8.65237E0],"categories":[],"categories_nodes":[],"categories_segments":[],"categories_sizes":[],"default_left":[0],"id":66,"left_children":[-1],"loss_changes":[0E0],"parents":[2147483647],"right_children":[-1],"split_conditions":[-4.3261853E-1],"split_indices":[0],"split_type":[0],"sum_hessian":[3E0],"tree_param":{"num_deleted":"0","num_feature":"41","num_nodes":"1","size_leaf_vector":"1"}},{"base_weights":[-8.327908E0],"categories":[],"categories_nodes":[],"categories_segments":[],"categories_sizes":[],"default_left":[0],"id":67,"left_children":[-1],"loss_changes":[0E0],"parents":[2147483647],"right_children":[-1],"split_conditions":[-4.163954E-1],"split_indices":[0],"split_type":[0],"sum_hessian":[3E0],"tree_param":{"num_deleted":"0","num_feature":"41","num_nodes":"1","size_leaf_vector":"1"}},{"base_weights":[-8.01561E0],"categories":[],"categories_nodes":[],"categories_segments":[],"categories_sizes":[],"default_left":[0],"id":68,"left_children":[-1],"loss_changes":[0E0],"parents":[2147483647],"right_children":[-1],"split_conditions":[-4.007805E-1],"split_indices":[0],"split_type":[0],"sum_hessian":[3E0],"tree_param":{"num_deleted":"0","num_feature":"41","num_nodes":"1","size_leaf_vector":"1"}},{"base_weights":[-7.715025E0],"categories":[],"categories_nodes":[],"categories_segments":[],"categories_sizes":[],"default_left":[0],"id":69,"left_children":[-1],"loss_changes":[0E0],"parents":[2147483647],"right_children":[-1],"split_conditions":[-3.8575125E-1],"split_indices":[0],"split_type":[0],"sum_hessian":[3E0],"tree_param":{"num_deleted":"0","num_feature":"41","num_nodes":"1","size_leaf_vector":"1"}},{"base_weights":[-7.4257126E0],"categories":[],"categories_nodes":[],"categories_segments":[],"categories_sizes":[],"default_left":[0],"id":70,"left_children":[-1],"loss_changes":[0E0],"parents":[2147483647],"right_children":[-1],"split_conditions":[-3.7128565E-1],"split_indices":[0],"split_type":[0],"sum_hessian":[3E0],"tree_param":{"num_deleted":"0","num_feature":"41","num_nodes":"1","size_leaf_vector":"1"}},{"base_weights":[-7.147249E0,-4.0299684E-1,-1.10229686E-1],"categories":[],"categories_nodes":[],"categories_segments":[],"categories_sizes":[],"default_left":[0,0,0],"id":71,"left_children":[1,-1,-1],"loss_changes":[2.7552795E-1,0E0,0E0],"parents":[2147483647,0,0],"right_children":[2,-1,-1],"split_conditions":[1.59E2,-4.0299684E-1,-1.10229686E-1],"split_indices":[1,0,0],"split_type":[0,0,0],"sum_hessian":[3E0,2E0,1E0],"tree_param":{"num_deleted":"0","num_feature":"41","num_nodes":"3","size_leaf_vector":"1"}},{"base_weights":[-6.918192E0],"categories":[],"categories_nodes":[],"categories_segments":[],"categories_sizes":[],"default_left":[0],"id":72,"left_children":[-1],"loss_changes":[0E0],"parents":[2147483647],"right_children":[-1],"split_conditions":[-3.459096E-1],"split_indices":[0],"split_type":[0],"sum_hessian":[3E0],"tree_param":{"num_deleted":"0","num_feature":"41","num_nodes":"1","size_leaf_vector":"1"}},{"base_weights":[-6.65876E0,-3.780332E-1,-9.882622E-2],"categories":[],"categories_nodes":[],"categories_segments":[],"categories_sizes":[],"default_left":[0,0,0],"id":73,"left_children":[1,-1,-1],"loss_changes":[1.9478607E0,0E0,0E0],"parents":[2147483647,0,0],"right_children":[2,-1,-1],"split_conditions":[1.59E2,-3.780332E-1,-9.882622E-2],"split_indices":[1,0,0],"split_type":[0,0,0],"sum_hessian":[3E0,2E0,1E0],"tree_param":{"num_deleted":"0","num_feature":"41","num_nodes":"3","size_leaf_vector":"1"}},{"base_weights":[-6.445036E0,-3.65432E-1,-9.635563E-2],"categories":[],"categories_nodes":[],"categories_segments":[],"categories_sizes":[],"default_left":[0,0,0],"id":74,"left_children":[1,-1,-1],"loss_changes":[1.5222168E0,0E0,0E0],"parents":[2147483647,0,0],"right_children":[2,-1,-1],"split_conditions":[1.59E2,-3.65432E-1,-9.635563E-2],"split_indices":[1,0,0],"split_type":[0,0,0],"sum_hessian":[3E0,2E0,1E0],"tree_param":{"num_deleted":"0","num_feature":"41","num_nodes":"3","size_leaf_vector":"1"}},{"base_weights":[-6.2382298E0,-3.532509E-1,-9.394665E-2],"categories":[],"categories_nodes":[],"categories_segments":[],"categories_sizes":[],"default_left":[0,0,0],"id":75,"left_children":[1,-1,-1],"loss_changes":[1.1421509E0,0E0,0E0],"parents":[2147483647,0,0],"right_children":[2,-1,-1],"split_conditions":[1.59E2,-3.532509E-1,-9.394665E-2],"split_indices":[1,0,0],"split_type":[0,0,0],"sum_hessian":[3E0,2E0,1E0],"tree_param":{"num_deleted":"0","num_feature":"41","num_nodes":"3","size_leaf_vector":"1"}},{"base_weights":[-6.0381184E0,-3.4147593E-1,-9.159794E-2],"categories":[],"categories_nodes":[],"categories_segments":[],"categories_sizes":[],"default_left":[0,0,0],"id":76,"left_children":[1,-1,-1],"loss_changes":[8.036194E-1,0E0,0E0],"parents":[2147483647,0,0],"right_children":[2,-1,-1],"split_conditions":[1.59E2,-3.4147593E-1,-9.159794E-2],"split_indices":[1,0,0],"split_type":[0,0,0],"sum_hessian":[3E0,2E0,1E0],"tree_param":{"num_deleted":"0","num_feature":"41","num_nodes":"3","size_leaf_vector":"1"}},{"base_weights":[-5.8444805E0,-3.3009338E-1,-8.930798E-2],"categories":[],"categories_nodes":[],"categories_segments":[],"categories_sizes":[],"default_left":[0,0,0],"id":77,"left_children":[1,-1,-1],"loss_changes":[5.0289917E-1,0E0,0E0],"parents":[2147483647,0,0],"right_children":[2,-1,-1],"split_conditions":[1.59E2,-3.3009338E-1,-8.930798E-2],"split_indices":[1,0,0],"split_type":[0,0,0],"sum_hessian":[3E0,2E0,1E0],"tree_param":{"num_deleted":"0","num_feature":"41","num_nodes":"3","size_leaf_vector":"1"}},{"base_weights":[-5.6571064E0,-3.1909028E-1,-8.707523E-2],"categories":[],"categories_nodes":[],"categories_segments":[],"categories_sizes":[],"default_left":[0,0,0],"id":78,"left_children":[1,-1,-1],"loss_changes":[2.3658752E-1,0E0,0E0],"parents":[2147483647,0,0],"right_children":[2,-1,-1],"split_conditions":[1.59E2,-3.1909028E-1,-8.707523E-2],"split_indices":[1,0,0],"split_type":[0,0,0],"sum_hessian":[3E0,2E0,1E0],"tree_param":{"num_deleted":"0","num_feature":"41","num_nodes":"3","size_leaf_vector":"1"}},{"base_weights":[-5.475792E0,-3.084539E-1,-8.4898375E-2],"categories":[],"categories_nodes":[],"categories_segments":[],"categories_sizes":[],"default_left":[0,0,0],"id":79,"left_children":[1,-1,-1],"loss_changes":[1.5563965E-3,0E0,0E0],"parents":[2147483647,0,0],"right_children":[2,-1,-1],"split_conditions":[1.59E2,-3.084539E-1,-8.4898375E-2],"split_indices":[1,0,0],"split_type":[0,0,0],"sum_hessian":[3E0,2E0,1E0],"tree_param":{"num_deleted":"0","num_feature":"41","num_nodes":"3","size_leaf_vector":"1"}},{"base_weights":[-6.9386725E0,-1.5202558E0,-1.011567E0,-4.7029786E0,3.2111654E-1,-3.7213677E-1,-1.6827621E0,1.0774231E0,-4.022257E0,8.393593E-2,-1.8161584E-2,-2.3581402E-1,-4.850464E-2],"categories":[],"categories_nodes":[],"categories_segments":[],"categories_sizes":[],"default_left":[0,0,0,0,0,0,0,0,0,0,0,0,0],"id":80,"left_children":[1,3,-1,5,-1,-1,7,9,11,-1,-1,-1,-1],"loss_changes":[1.4817723E3,4.346689E2,0E0,8.6771515E1,0E0,0E0,4.9535748E1,4.0747995E0,3.8978653E0,0E0,0E0,0E0,0E0],"parents":[2147483647,0,0,1,1,3,3,6,6,7,7,8,8],"right_children":[2,4,-1,6,-1,-1,8,10,12,-1,-1,-1,-1],"split_conditions":[5.2E1,2.680259E1,-1.011567E0,2.1E1,3.2111654E-1,-3.7213677E-1,1.044E4,5E0,1.35E2,8.393593E-2,-1.8161584E-2,-2.3581402E-1,-4.850464E-2],"split_indices":[3,38,0,36,0,0,16,0,1,0,0,0,0],"split_type":[0,0,0,0,0,0,0,0,0,0,0,0,0],"sum_hessian":[2E1,1.5E1,5E0,1.1E1,4E0,5E0,6E0,3E0,3E0,2E0,1E0,2E0,1E0],"tree_param":{"num_deleted":"0","num_feature":"41","num_nodes":"13","size_leaf_vector":"1"}},{"base_weights":[-6.6527443E0,-1.4610896E0,-9.6941835E-1,-4.517052E0,3.082719E-1,-3.5663098E-1,-1.6298441E0,1.0399942E0,-3.8922215E0,8.113804E-2,-1.7707635E-2,-2.2795346E-1,-4.7291946E-2],"categories":[],"categories_nodes":[],"categories_segments":[],"categories_sizes":[],"default_left":[0,0,0,0,0,0,0,0,0,0,0,0,0],"id":81,"left_children":[1,3,-1,5,-1,-1,7,9,11,-1,-1,-1,-1],"loss_changes":[1.3601699E3,4.0075174E2,0E0,7.899519E1,0E0,0E0,4.6329163E1,3.8245535E0,3.5470123E0,0E0,0E0,0E0,0E0],"parents":[2147483647,0,0,1,1,3,3,6,6,7,7,8,8],"right_children":[2,4,-1,6,-1,-1,8,10,12,-1,-1,-1,-1],"split_conditions":[5.2E1,2.680259E1,-9.6941835E-1,2.1E1,3.082719E-1,-3.5663098E-1,1.044E4,5E0,1.35E2,8.113804E-2,-1.7707635E-2,-2.2795346E-1,-4.7291946E-2],"split_indices":[3,38,0,36,0,0,16,0,1,0,0,0,0],"split_type":[0,0,0,0,0,0,0,0,0,0,0,0,0],"sum_hessian":[2E1,1.5E1,5E0,1.1E1,4E0,5E0,6E0,3E0,3E0,2E0,1E0,2E0,1E0],"tree_param":{"num_deleted":"0","num_feature":"41","num_nodes":"13","size_leaf_vector":"1"}},{"base_weights":[-6.3786597E0,-1.4042974E0,-9.2902577E-1,-4.338571E0,2.9594097E-1,-3.4177145E-1,-1.5786116E0,1.0038519E0,-3.7664223E0,7.843342E-2,-1.7264938E-2,-2.2035511E-1,-4.6109583E-2],"categories":[],"categories_nodes":[],"categories_segments":[],"categories_sizes":[],"default_left":[0,0,0,0,0,0,0,0,0,0,0,0,0],"id":82,"left_children":[1,3,-1,5,-1,-1,7,9,11,-1,-1,-1,-1],"loss_changes":[1.2485328E3,3.694877E2,0E0,7.190422E1,0E0,0E0,4.3330517E1,3.5897498E0,3.2247696E0,0E0,0E0,0E0,0E0],"parents":[2147483647,0,0,1,1,3,3,6,6,7,7,8,8],"right_children":[2,4,-1,6,-1,-1,8,10,12,-1,-1,-1,-1],"split_conditions":[5.2E1,2.680259E1,-9.2902577E-1,2.1E1,2.9594097E-1,-3.4177145E-1,1.044E4,5E0,1.35E2,7.843342E-2,-1.7264938E-2,-2.2035511E-1,-4.6109583E-2],"split_indices":[3,38,0,36,0,0,16,0,1,0,0,0,0],"split_type":[0,0,0,0,0,0,0,0,0,0,0,0,0],"sum_hessian":[2E1,1.5E1,5E0,1.1E1,4E0,5E0,6E0,3E0,3E0,2E0,1E0,2E0,1E0],"tree_param":{"num_deleted":"0","num_feature":"41","num_nodes":"13","size_leaf_vector":"1"}},{"base_weights":[-6.1159244E0,-1.3497775E0,-8.903165E-1,-4.1672306E0,2.8410327E-1,-5.8301163E0,-6.731674E-1,-3.5662702E-1,-1.281896E0,7.5819016E-2,-1.319163E-1,-1.6833305E-2,-7.930889E-2],"categories":[],"categories_nodes":[],"categories_segments":[],"categories_sizes":[],"default_left":[0,0,0,0,0,0,0,0,0,0,0,0,0],"id":83,"left_children":[1,3,-1,5,-1,7,9,-1,11,-1,-1,-1,-1],"loss_changes":[1.1460474E3,3.406687E2,0E0,6.579811E1,0E0,3.824652E1,2.5514748E1,0E0,3.2883596E-1,0E0,0E0,0E0,0E0],"parents":[2147483647,0,0,1,1,3,3,5,5,6,6,8,8],"right_children":[2,4,-1,6,-1,8,10,-1,12,-1,-1,-1,-1],"split_conditions":[5.2E1,2.680259E1,-8.903165E-1,7.2E2,2.8410327E-1,1.3320093E1,1.02E2,-3.5662702E-1,1.9E1,7.5819016E-2,-1.319163E-1,-1.6833305E-2,-7.930889E-2],"split_indices":[3,38,0,14,0,33,1,0,0,0,0,0,0],"split_type":[0,0,0,0,0,0,0,0,0,0,0,0,0],"sum_hessian":[2E1,1.5E1,5E0,1.1E1,4E0,7E0,4E0,5E0,2E0,2E0,2E0,1E0,1E0],"tree_param":{"num_deleted":"0","num_feature":"41","num_nodes":"13","size_leaf_vector":"1"}},{"base_weights":[-5.8632264E0,-1.2963359E0,-8.532198E-1,-4.001274E0,2.7273914E-1,-5.5952063E0,-6.5072787E-1,-3.4176752E-1,-1.2498499E0,7.329165E-2,-1.2751898E-1,-1.6412545E-2,-7.73262E-2],"categories":[],"categories_nodes":[],"categories_segments":[],"categories_sizes":[],"default_left":[0,0,0,0,0,0,0,0,0,0,0,0,0],"id":84,"left_children":[1,3,-1,5,-1,7,9,-1,11,-1,-1,-1,-1],"loss_changes":[1.0521235E3,3.1400784E2,0E0,6.044557E1,0E0,3.4567764E1,2.3842072E1,0E0,3.1259632E-1,0E0,0E0,0E0,0E0],"parents":[2147483647,0,0,1,1,3,3,5,5,6,6,8,8],"right_children":[2,4,-1,6,-1,8,10,-1,12,-1,-1,-1,-1],"split_conditions":[5.2E1,2.680259E1,-8.532198E-1,7.2E2,2.7273914E-1,1.3320093E1,1.02E2,-3.4176752E-1,1.9E1,7.329165E-2,-1.2751898E-1,-1.6412545E-2,-7.73262E-2],"split_indices":[3,38,0,14,0,33,1,0,0,0,0,0,0],"split_type":[0,0,0,0,0,0,0,0,0,0,0,0,0],"sum_hessian":[2E1,1.5E1,5E0,1.1E1,4E0,7E0,4E0,5E0,2E0,2E0,2E0,1E0,1E0],"tree_param":{"num_deleted":"0","num_feature":"41","num_nodes":"13","size_leaf_vector":"1"}},{"base_weights":[-5.621028E0,-1.2450814E0,-8.1766903E-1,-3.8420222E0,2.6182964E-1,-3.0208907E-1,-1.4076544E0,9.027071E-1,-3.3661022E0,7.084866E-2,-1.6002273E-2,-1.987596E-1,-3.8470842E-2],"categories":[],"categories_nodes":[],"categories_segments":[],"categories_sizes":[],"default_left":[0,0,0,0,0,0,0,0,0,0,0,0,0],"id":85,"left_children":[1,3,-1,5,-1,-1,7,9,11,-1,-1,-1,-1],"loss_changes":[9.65887E2,2.894395E2,0E0,5.575554E1,0E0,0E0,3.4711662E1,2.9687757E0,3.2678757E0,0E0,0E0,0E0,0E0],"parents":[2147483647,0,0,1,1,3,3,6,6,7,7,8,8],"right_children":[2,4,-1,6,-1,-1,8,10,12,-1,-1,-1,-1],"split_conditions":[5.2E1,2.680259E1,-8.1766903E-1,2.1E1,2.6182964E-1,-3.0208907E-1,1.044E4,5E0,1.35E2,7.084866E-2,-1.6002273E-2,-1.987596E-1,-3.8470842E-2],"split_indices":[3,38,0,36,0,0,16,0,1,0,0,0,0],"split_type":[0,0,0,0,0,0,0,0,0,0,0,0,0],"sum_hessian":[2E1,1.5E1,5E0,1.1E1,4E0,5E0,6E0,3E0,3E0,2E0,1E0,2E0,1E0],"tree_param":{"num_deleted":"0","num_feature":"41","num_nodes":"13","size_leaf_vector":"1"}},{"base_weights":[-5.389516E0,-1.1967442E0,-7.835993E-1,-3.6902955E0,2.513564E-1,-5.1671524E0,-5.8926547E-1,-6.316027E0,-1.1470184E0,6.848704E-2,-1.1759249E-1,-3.7273064E-1,-1.3462855E-1,-1.5602303E-2,-7.042408E-2],"categories":[],"categories_nodes":[],"categories_segments":[],"categories_sizes":[],"default_left":[0,0,0,0,0,0,0,0,0,0,0,0,0,0,0],"id":86,"left_children":[1,3,-1,5,-1,7,9,11,13,-1,-1,-1,-1,-1,-1],"loss_changes":[8.8659766E2,2.668643E2,0E0,5.191252E1,0E0,2.9704453E1,2.0485996E1,4.68161E0,2.1543264E-1,0E0,0E0,0E0,0E0,0E0,0E0],"parents":[2147483647,0,0,1,1,3,3,5,5,6,6,7,7,8,8],"right_children":[2,4,-1,6,-1,8,10,12,14,-1,-1,-1,-1,-1,-1],"split_conditions":[5.2E1,2.680259E1,-7.835993E-1,7.2E2,2.513564E-1,1.3320093E1,1.02E2,3.84E3,1.9E1,6.848704E-2,-1.1759249E-1,-3.7273064E-1,-1.3462855E-1,-1.5602303E-2,-7.042408E-2],"split_indices":[3,38,0,14,0,33,1,15,0,0,0,0,0,0,0],"split_type":[0,0,0,0,0,0,0,0,0,0,0,0,0,0,0],"sum_hessian":[2E1,1.5E1,5E0,1.1E1,4E0,7E0,4E0,5E0,2E0,2E0,2E0,3E0,2E0,1E0,1E0],"tree_param":{"num_deleted":"0","num_feature":"41","num_nodes":"15","size_leaf_vector":"1"}},{"base_weights":[-5.1759796E0,-1.1613529E0,-7.509493E-1,-3.5593212E0,4.826041E0,-4.982967E0,-5.696236E-1,1.1035239E-1,2.9181775E-1,-6.084784E0,-1.1183434E0,6.620414E-2,-2.2734554E0,-3.5875311E-1,-1.3014095E-1,-1.521225E-2,-6.86635E-2,-1.3593979E-1,-3.456936E-2],"categories":[],"categories_nodes":[],"categories_segments":[],"categories_sizes":[],"default_left":[0,0,0,0,0,0,0,0,0,0,0,0,0,0,0,0,0,0,0],"id":87,"left_children":[1,3,-1,5,7,9,11,-1,-1,13,15,-1,17,-1,-1,-1,-1,-1,-1],"loss_changes":[8.123936E2,2.4689873E2,0E0,4.8236847E1,3.4890747E-1,2.725998E1,1.9143028E1,0E0,0E0,4.102478E0,2.0479584E-1,0E0,2.3393631E-1,0E0,0E0,0E0,0E0,0E0,0E0],"parents":[2147483647,0,0,1,1,3,3,4,4,5,5,6,6,9,9,10,10,12,12],"right_children":[2,4,-1,6,8,10,12,-1,-1,14,16,-1,18,-1,-1,-1,-1,-1,-1],"split_conditions":[5.2E1,2.680259E1,-7.509493E-1,7.2E2,4.3E1,1.3320093E1,1.02E2,1.1035239E-1,2.9181775E-1,3.84E3,1.9E1,6.620414E-2,3E0,-3.5875311E-1,-1.3014095E-1,-1.521225E-2,-6.86635E-2,-1.3593979E-1,-3.456936E-2],"split_indices":[3,38,0,14,2,33,1,0,0,15,0,0,0,0,0,0,0,0,0],"split_type":[0,0,0,0,0,0,0,0,0,0,0,0,0,0,0,0,0,0,0],"sum_hessian":[2E1,1.5E1,5E0,1.1E1,4E0,7E0,4E0,2E0,2E0,5E0,2E0,2E0,2E0,3E0,2E0,1E0,1E0,1E0,1E0],"tree_param":{"num_deleted":"0","num_feature":"41","num_nodes":"19","size_leaf_vector":"1"}},{"base_weights":[-4.9660316E0,-1.1204672E0,-7.196599E-1,-3.4377787E0,4.665174E0,-2.7078515E-1,-1.251304E0,1.0667401E-1,2.820905E-1,8.116398E-1,-3.001422E0,6.399727E-2,-1.4831925E-2,-1.776247E-1,-3.370514E-2],"categories":[],"categories_nodes":[],"categories_segments":[],"categories_sizes":[],"default_left":[0,0,0,0,0,0,0,0,0,0,0,0,0,0,0],"id":88,"left_children":[1,3,-1,5,7,-1,9,-1,-1,11,13,-1,-1,-1,-1],"loss_changes":[7.4518115E2,2.3055199E2,0E0,4.5119476E1,3.260193E-1,0E0,2.7708836E1,0E0,0E0,2.4557328E0,2.7353363E0,0E0,0E0,0E0,0E0],"parents":[2147483647,0,0,1,1,3,3,4,4,6,6,9,9,10,10],"right_children":[2,4,-1,6,8,-1,10,-1,-1,12,14,-1,-1,-1,-1],"split_conditions":[5.2E1,2.680259E1,-7.196599E-1,2.1E1,4.3E1,-2.7078515E-1,1.044E4,1.0667401E-1,2.820905E-1,5E0,1.35E2,6.399727E-2,-1.4831925E-2,-1.776247E-1,-3.370514E-2],"split_indices":[3,38,0,36,2,0,16,0,0,0,1,0,0,0,0],"split_type":[0,0,0,0,0,0,0,0,0,0,0,0,0,0,0],"sum_hessian":[2E1,1.5E1,5E0,1.1E1,4E0,5E0,6E0,2E0,2E0,3E0,3E0,2E0,1E0,2E0,1E0],"tree_param":{"num_deleted":"0","num_feature":"41","num_nodes":"15","size_leaf_vector":"1"}},{"base_weights":[-4.754104E0,-1.0672057E0,-6.8967414E-1,-3.3019695E0,4.509669E0,-4.623764E0,-5.2670443E-1,1.03118196E-1,2.7268752E-1,-5.6519027E0,-1.0262324E0,6.186409E-2,-2.1151226E0,-3.3631012E-1,-1.1677679E-1,-1.4461136E-2,-6.2506296E-2,-1.2577172E-1,-3.2862473E-2],"categories":[],"categories_nodes":[],"categories_segments":[],"categories_sizes":[],"default_left":[0,0,0,0,0,0,0,0,0,0,0,0,0,0,0,0,0,0,0],"id":89,"left_children":[1,3,-1,5,7,9,11,-1,-1,13,15,-1,17,-1,-1,-1,-1,-1,-1],"loss_changes":[6.851522E2,2.1429874E2,0E0,4.158461E1,3.0465698E-1,2.3789917E1,1.6626741E1,0E0,0E0,5.667343E0,1.3347006E-1,0E0,9.754372E-2,0E0,0E0,0E0,0E0,0E0,0E0],"parents":[2147483647,0,0,1,1,3,3,4,4,5,5,6,6,9,9,10,10,12,12],"right_children":[2,4,-1,6,8,10,12,-1,-1,14,16,-1,18,-1,-1,-1,-1,-1,-1],"split_conditions":[5.2E1,2.680259E1,-6.8967414E-1,7.2E2,4.3E1,1.3320093E1,1.02E2,1.03118196E-1,2.7268752E-1,3.84E3,1.9E1,6.186409E-2,3E0,-3.3631012E-1,-1.1677679E-1,-1.4461136E-2,-6.2506296E-2,-1.2577172E-1,-3.2862473E-2],"split_indices":[3,38,0,14,2,33,1,0,0,15,0,0,0,0,0,0,0,0,0],"split_type":[0,0,0,0,0,0,0,0,0,0,0,0,0,0,0,0,0,0,0],"sum_hessian":[2E1,1.5E1,5E0,1.1E1,4E0,7E0,4E0,2E0,2E0,5E0,2E0,2E0,2E0,3E0,2E0,1E0,1E0,1E0,1E0],"tree_param":{"num_deleted":"0","num_feature":"41","num_nodes":"19","size_leaf_vector":"1"}},{"base_weights":[-4.5611944E0,-1.0295348E0,-6.609377E-1,-3.189107E0,4.3593454E0,-5.01806E0,-1.1658461E0,9.96809E-2,2.6359788E-1,-2.7132723E-1,-7.4390985E-2,7.56032E-1,-2.7962627E0,5.9801932E-2,-1.4099694E-2,-1.6505687E-1,-3.204098E-2],"categories":[],"categories_nodes":[],"categories_segments":[],"categories_sizes":[],"default_left":[0,0,0,0,0,0,0,0,0,0,0,0,0,0,0,0,0],"id":90,"left_children":[1,3,-1,5,7,9,11,-1,-1,-1,-1,13,15,-1,-1,-1,-1],"loss_changes":[6.284775E2,2.0010522E2,0E0,3.855509E1,2.8469086E-1,5.785675E-1,2.4048298E1,0E0,0E0,0E0,0E0,2.1642284E0,2.237484E0,0E0,0E0,0E0,0E0],"parents":[2147483647,0,0,1,1,3,3,4,4,5,5,6,6,11,11,12,12],"right_children":[2,4,-1,6,8,10,12,-1,-1,-1,-1,14,16,-1,-1,-1,-1],"split_conditions":[5.2E1,2.680259E1,-6.609377E-1,2.1E1,4.3E1,4.9E1,1.044E4,9.96809E-2,2.6359788E-1,-2.7132723E-1,-7.4390985E-2,5E0,1.35E2,5.9801932E-2,-1.4099694E-2,-1.6505687E-1,-3.204098E-2],"split_indices":[3,38,0,36,2,3,16,0,0,0,0,0,1,0,0,0,0],"split_type":[0,0,0,0,0,0,0,0,0,0,0,0,0,0,0,0,0],"sum_hessian":[2E1,1.5E1,5E0,1.1E1,4E0,5E0,6E0,2E0,2E0,4E0,1E0,3E0,3E0,2E0,1E0,2E0,1E0],"tree_param":{"num_deleted":"0","num_feature":"41","num_nodes":"17","size_leaf_vector":"1"}},{"base_weights":[-4.3709817E0,-9.864228E-1,-1.2667974E1,-3.0710783E0,4.214035E0,-2.816529E-1,-7.388584E-1,-4.3047605E0,-4.829712E-1,9.635823E-2,2.5481138E-1,-5.2692513E0,-9.408582E-1,1.1561712E0,-9.805616E-2,-3.1485215E-1,-1.07122295E-1,-1.3747215E-2,-5.681715E-2,1.8192483E-2,6.852036E-2],"categories":[],"categories_nodes":[],"categories_segments":[],"categories_sizes":[],"default_left":[0,0,0,0,0,0,0,0,0,0,0,0,0,0,0,0,0,0,0,0,0],"id":91,"left_children":[1,3,5,7,9,-1,-1,11,13,-1,-1,15,17,19,-1,-1,-1,-1,-1,-1,-1],"loss_changes":[5.772189E2,1.8640024E2,5.7873535E0,3.623574E1,2.6602936E-1,0E0,0E0,2.0998016E1,1.4381903E1,0E0,0E0,5.7911377E0,7.8097105E-2,1.060915E-2,0E0,0E0,0E0,0E0,0E0,0E0,0E0],"parents":[2147483647,0,0,1,1,2,2,3,3,4,4,7,7,8,8,11,11,12,12,13,13],"right_children":[2,4,6,8,10,-1,-1,12,14,-1,-1,16,18,20,-1,-1,-1,-1,-1,-1,-1],"split_conditions":[5.2E1,2.680259E1,6.2E1,7.2E2,4.3E1,-2.816529E-1,-7.388584E-1,1.3320093E1,1.02E2,9.635823E-2,2.5481138E-1,3.84E3,1.9E1,2E0,-9.805616E-2,-3.1485215E-1,-1.07122295E-1,-1.3747215E-2,-5.681715E-2,1.8192483E-2,6.852036E-2],"split_indices":[3,38,2,14,2,0,0,33,1,0,0,15,0,0,0,0,0,0,0,0,0],"split_type":[0,0,0,0,0,0,0,0,0,0,0,0,0,0,0,0,0,0,0,0,0],"sum_hessian":[2E1,1.5E1,5E0,1.1E1,4E0,2E0,3E0,7E0,4E0,2E0,2E0,5E0,2E0,2E0,2E0,3E0,2E0,1E0,1E0,1E0,1E0],"tree_param":{"num_deleted":"0","num_feature":"41","num_nodes":"21","size_leaf_vector":"1"}},{"base_weights":[-4.2083006E0,-9.4664717E-1,-1.2204659E1,-2.9595153E0,4.0735655E0,-2.7226442E-1,-7.111511E-1,-4.15109E0,-4.6109238E-1,9.314626E-2,2.4631755E-1,-5.0761185E0,-9.1733676E-1,1.1272672E0,-1.8957545E0,-3.0304527E-1,-1.03551485E-1,-1.3403512E-2,-5.5396747E-2,1.7737675E-2,6.680737E-2,-1.1339302E-1,-2.8788567E-2],"categories":[],"categories_nodes":[],"categories_segments":[],"categories_sizes":[],"default_left":[0,0,0,0,0,0,0,0,0,0,0,0,0,0,0,0,0,0,0,0,0,0,0],"id":92,"left_children":[1,3,5,7,9,-1,-1,11,13,-1,-1,15,17,19,21,-1,-1,-1,-1,-1,-1,-1,-1],"loss_changes":[5.3615485E2,1.7373619E2,4.4087524E0,3.381067E1,2.4858856E-1,0E0,0E0,1.9273987E1,1.3530818E1,0E0,0E0,5.2039185E0,7.424283E-2,1.0085344E-2,1.6775131E-1,0E0,0E0,0E0,0E0,0E0,0E0,0E0,0E0],"parents":[2147483647,0,0,1,1,2,2,3,3,4,4,7,7,8,8,11,11,12,12,13,13,14,14],"right_children":[2,4,6,8,10,-1,-1,12,14,-1,-1,16,18,20,22,-1,-1,-1,-1,-1,-1,-1,-1],"split_conditions":[5.2E1,2.680259E1,6.2E1,7.2E2,4.3E1,-2.7226442E-1,-7.111511E-1,1.3320093E1,1.02E2,9.314626E-2,2.4631755E-1,3.84E3,1.9E1,2E0,3E0,-3.0304527E-1,-1.03551485E-1,-1.3403512E-2,-5.5396747E-2,1.7737675E-2,6.680737E-2,-1.1339302E-1,-2.8788567E-2],"split_indices":[3,38,2,14,2,0,0,33,1,0,0,15,0,0,0,0,0,0,0,0,0,0,0],"split_type":[0,0,0,0,0,0,0,0,0,0,0,0,0,0,0,0,0,0,0,0,0,0,0],"sum_hessian":[2E1,1.5E1,5E0,1.1E1,4E0,2E0,3E0,7E0,4E0,2E0,2E0,5E0,2E0,2E0,2E0,3E0,2E0,1E0,1E0,1E0,1E0,1E0,1E0],"tree_param":{"num_deleted":"0","num_feature":"41","num_nodes":"23","size_leaf_vector":"1"}},{"base_weights":[-4.053932E0,-9.1141224E-1,-1.1758329E1,-2.8559582E0,3.9377809E0,-3.195909E-1,-7.4971175E-1,-4.5133452E0,-1.027347E0,9.0041354E-2,2.3810704E-1,-2.6342613E-1,-1.000997E-1,6.9362926E-1,-2.4914865E0,1.0990843E0,-1.306839E-2,-1.4738649E-1,-2.8068924E-2,1.7294217E-2,6.51371E-2],"categories":[],"categories_nodes":[],"categories_segments":[],"categories_sizes":[],"default_left":[0,0,0,0,0,0,0,0,0,0,0,0,0,0,0,0,0,0,0,0,0],"id":93,"left_children":[1,3,5,7,9,-1,-1,11,13,-1,-1,-1,-1,15,17,19,-1,-1,-1,-1,-1],"loss_changes":[4.97719E2,1.621178E2,8.352722E0,3.1731834E1,2.3230743E-1,0E0,0E0,8.3153534E-1,1.9366413E1,0E0,0E0,0E0,0E0,1.8360983E0,1.8676014E0,9.5870495E-3,0E0,0E0,0E0,0E0,0E0],"parents":[2147483647,0,0,1,1,2,2,3,3,4,4,7,7,8,8,13,13,14,14,15,15],"right_children":[2,4,6,8,10,-1,-1,12,14,-1,-1,-1,-1,16,18,20,-1,-1,-1,-1,-1],"split_conditions":[5.2E1,2.680259E1,6.3E1,2.1E1,4.3E1,-3.195909E-1,-7.4971175E-1,3.9E3,1.044E4,9.0041354E-2,2.3810704E-1,-2.6342613E-1,-1.000997E-1,5E0,1.35E2,2E0,-1.306839E-2,-1.4738649E-1,-2.8068924E-2,1.7294217E-2,6.51371E-2],"split_indices":[3,38,2,36,2,0,0,15,16,0,0,0,0,0,1,0,0,0,0,0,0],"split_type":[0,0,0,0,0,0,0,0,0,0,0,0,0,0,0,0,0,0,0,0,0],"sum_hessian":[2E1,1.5E1,5E0,1.1E1,4E0,3E0,2E0,5E0,6E0,2E0,2E0,3E0,2E0,3E0,3E0,2E0,1E0,2E0,1E0,1E0,1E0],"tree_param":{"num_deleted":"0","num_feature":"41","num_nodes":"21","size_leaf_vector":"1"}},{"base_weights":[-3.9088917E0,-8.7468386E-1,-1.1348631E1,-2.7522957E0,3.8065217E0,-3.0760628E-1,-7.247214E-1,-3.8735976E0,-4.0775377E-1,8.703995E-2,2.3017018E-1,-4.7443376E0,-8.4091824E-1,1.0716057E0,-1.7511953E0,-2.83253E-1,-9.6763104E-2,-1.2741662E-2,-5.0327208E-2,1.686182E-2,6.350861E-2,-1.03972435E-1,-2.736721E-2],"categories":[],"categories_nodes":[],"categories_segments":[],"categories_sizes":[],"default_left":[0,0,0,0,0,0,0,0,0,0,0,0,0,0,0,0,0,0,0,0,0,0,0],"id":94,"left_children":[1,3,5,7,9,-1,-1,11,13,-1,-1,15,17,19,21,-1,-1,-1,-1,-1,-1,-1,-1],"loss_changes":[4.6412155E2,1.5110847E2,8.911377E0,2.9967796E1,2.1708679E-1,0E0,0E0,1.7135803E1,1.1813755E1,0E0,0E0,4.554901E0,3.47116E-2,9.114981E-3,